{"learner":{"attributes":{"best_iteration":"59","best_ntree_limit":"60","scikit_learn":"{\"use_label_encoder\": false, \"n_estimators\": 60, \"objective\": \"binary:logistic\", \"max_depth\": 35, \"max_leaves\": null, \"max_bin\": null, \"grow_policy\": null, \"learning_rate\": null, \"verbosity\": null, \"booster\": null, \"tree_method\": null, \"gamma\": null, \"min_child_weight\": 0.8, \"max_delta_step\": null, \"subsample\": null, \"sampling_method\": null, \"colsample_bytree\": 0.8, \"colsample_bylevel\": null, \"colsample_bynode\": null, \"reg_alpha\": null, \"reg_lambda\": null, \"scale_pos_weight\": 4, \"base_score\": null, \"missing\": NaN, \"num_parallel_tree\": null, \"random_state\": null, \"n_jobs\": null, \"monotone_constraints\": null, \"interaction_constraints\": null, \"importance_type\": null, \"gpu_id\": null, \"validate_parameters\": null, \"predictor\": null, \"enable_categorical\": false, \"max_cat_to_onehot\": null, \"eval_metric\": null, \"early_stopping_rounds\": null, \"callbacks\": null, \"classes_\": [0, 1], \"n_classes_\": 2, \"_estimator_type\": \"classifier\"}"},"feature_names":["TP (g/dl)","GPT (IU/l)","T-Bil (mg/dl)"],"feature_types":["float","int","float"],"gradient_booster":{"model":{"gbtree_model_param":{"num_parallel_tree":"1","num_trees":"60","size_leaf_vector":"0"},"tree_info":[0,0,0,0,0,0,0,0,0,0,0,0,0,0,0,0,0,0,0,0,0,0,0,0,0,0,0,0,0,0,0,0,0,0,0,0,0,0,0,0,0,0,0,0,0,0,0,0,0,0,0,0,0,0,0,0,0,0,0,0],"trees":[{"base_weights":[1.762309E0,1.8615665E0,3.6363637E-1,-1.3333334E0,8.888889E-1,1.2727273E0,2.2222222E-1,-2.857143E-1,1E0,4E-1,-1E0],"categories":[],"categories_nodes":[],"categories_segments":[],"categories_sizes":[],"default_left":[1,0,1,0,1,0,1,1,0,0,0],"id":0,"left_children":[1,-1,3,-1,5,-1,7,9,-1,-1,-1],"loss_changes":[1.9765625E1,0E0,1.0989899E1,0E0,2.0202022E0,0E0,2.063492E0,2.1142857E0,0E0,0E0,0E0],"parents":[2147483647,0,0,2,2,4,4,6,6,7,7],"right_children":[2,-1,4,-1,6,-1,8,10,-1,-1,-1],"split_conditions":[1.1500001E0,5.5847E-1,3.8E1,-4.0000004E-1,6.5E1,3.818182E-1,4.575E2,1.505E0,3E-1,1.20000005E-1,-3E-1],"split_indices":[2,0,1,0,1,0,1,2,0,0,0],"split_type":[0,0,0,0,0,0,0,0,0,0,0],"sum_hessian":[1.4625E2,1.3625E2,1E1,2E0,8E0,4.5E0,3.5E0,2.5E0,1E0,1.5E0,1E0],"tree_param":{"num_deleted":"0","num_feature":"3","num_nodes":"11","size_leaf_vector":"0"}},{"base_weights":[1.3461096E0,1.4326202E0,3.1438306E-1,-1.2197622E0,7.799658E-1,1.3713354E-1,8.731218E-1,1.0518849E0,1.18250534E-1,1.1994464E0,3.1452602E-1],"categories":[],"categories_nodes":[],"categories_segments":[],"categories_sizes":[],"default_left":[1,0,1,0,1,0,1,1,0,0,0],"id":1,"left_children":[1,-1,3,-1,5,-1,7,9,-1,-1,-1],"loss_changes":[1.1765732E1,0E0,9.429524E0,0E0,4.621005E-1,0E0,9.956379E-1,3.391328E-1,0E0,0E0,0E0],"parents":[2147483647,0,0,2,2,4,4,6,6,7,7],"right_children":[2,-1,4,-1,6,-1,8,10,-1,-1,-1],"split_conditions":[1.05E0,4.2978606E-1,3.8E1,-3.6592868E-1,1.25E0,4.1140065E-2,9.95E1,2.1E0,3.547516E-2,3.5983396E-1,9.435781E-2],"split_indices":[2,0,1,0,2,0,1,2,0,0,0],"split_type":[0,0,0,0,0,0,0,0,0,0,0],"sum_hessian":[1.3586734E2,1.24997696E2,1.0869647E1,2.1535633E0,8.7160845E0,1.4161164E0,7.299968E0,5.5841155E0,1.715852E0,4.130778E0,1.4533379E0],"tree_param":{"num_deleted":"0","num_feature":"3","num_nodes":"11","size_leaf_vector":"0"}},{"base_weights":[1.1288853E0,1.206046E0,1.905436E-1,1.2382864E0,7.666349E-1,-9.289248E-1,5.3106976E-1,3.1122145E-1,9.171597E-1,-1.5041278E-1,7.1414703E-1,1.0040389E0,2.1543913E-1,1.0012861E0,-1.0256133E0],"categories":[],"categories_nodes":[],"categories_segments":[],"categories_sizes":[],"default_left":[1,1,1,0,1,0,1,0,0,0,1,0,1,0,0],"id":2,"left_children":[1,3,5,-1,7,-1,9,-1,-1,-1,11,-1,13,-1,-1],"loss_changes":[8.318619E0,5.935669E-1,4.3659043E0,0E0,4.048686E-1,0E0,1.158623E0,0E0,0E0,0E0,7.689965E-1,0E0,4.7120566E0,0E0,0E0],"parents":[2147483647,0,0,1,1,2,2,4,4,6,6,10,10,12,12],"right_children":[2,4,6,-1,8,-1,10,-1,-1,-1,12,-1,14,-1,-1],"split_conditions":[1.1500001E0,8.7E-1,3.8E1,3.7148592E-1,3.25E1,-2.7867746E-1,1.3499999E0,9.336644E-2,2.751479E-1,-4.5123838E-2,1.71E0,3.0121168E-1,4.65E1,3.0038586E-1,-3.07684E-1],"split_indices":[2,2,1,0,1,0,2,0,0,0,2,0,1,0,0],"split_type":[0,0,0,0,0,0,0,0,0,0,0,0,0,0,0],"sum_hessian":[1.1706695E2,1.0790825E2,9.158701E0,9.883825E1,9.069998E0,1.7331424E0,7.425559E0,3.0151682E0,6.0548296E0,1.6102016E0,5.815357E0,3.0368173E0,2.77854E0,1.8195673E0,9.5897263E-1],"tree_param":{"num_deleted":"0","num_feature":"3","num_nodes":"15","size_leaf_vector":"0"}},{"base_weights":[9.837162E-1,1.0674124E0,1.853173E-1,1.0956008E0,6.500568E-1,-2.3555052E-1,1.0648024E0,-2.6020408E-1,8.29896E-1,1.8629897E-1,-1.1095796E0,1.0551172E0,9.790529E-2,-9.918882E-1,6.9520307E-1],"categories":[],"categories_nodes":[],"categories_segments":[],"categories_sizes":[],"default_left":[1,1,0,0,0,0,0,0,0,0,0,0,0,0,0],"id":3,"left_children":[1,3,5,-1,7,9,-1,-1,11,13,-1,-1,-1,-1,-1],"loss_changes":[6.417183E0,3.394394E-1,4.1754355E0,0E0,1.5442908E0,3.15271E0,0E0,0E0,1.0531101E0,4.434127E0,0E0,0E0,0E0,0E0,0E0],"parents":[2147483647,0,0,1,1,2,2,4,4,5,5,8,8,9,9],"right_children":[2,4,6,-1,8,10,-1,-1,12,14,-1,-1,-1,-1,-1],"split_conditions":[1.05E0,8.7E-1,8.6E0,3.2868028E-1,7.1499996E0,7.9500003E0,3.1944072E-1,-7.806122E-2,8.05E0,7.3E0,-3.3287388E-1,3.1653517E-1,2.937159E-2,-2.9756647E-1,2.0856093E-1],"split_indices":[2,2,0,0,0,0,0,0,0,0,0,0,0,0,0],"split_type":[0,0,0,0,0,0,0,0,0,0,0,0,0,0,0],"sum_hessian":[9.7992874E1,8.839E1,9.602872E0,8.12755E1,7.1145024E0,6.990039E0,2.6128328E0,1.099992E0,6.01451E0,5.2452655E0,1.7447734E0,4.2617927E0,1.7527176E0,1.2959304E0,3.9493349E0],"tree_param":{"num_deleted":"0","num_feature":"3","num_nodes":"15","size_leaf_vector":"0"}},{"base_weights":[8.707984E-1,9.568139E-1,1.3500732E-1,1.0615848E0,7.899675E-1,-2.3423834E-1,9.3383074E-1,4.8624682E-1,9.1234463E-1,1.2608944E-1,-9.588937E-1,6.58607E-1,-2.2194792E-1,1.0446796E0,5.365062E-1,-8.670977E-1,5.663682E-1,7.334501E-1,3.0391318E-1,-9.1911995E-1,8.8313943E-1,8.126841E-1,1.8483955E-1,-2.1404038E-1,6.7015135E-1,5.8647037E-2,9.939117E-1],"categories":[],"categories_nodes":[],"categories_segments":[],"categories_sizes":[],"default_left":[1,1,0,0,0,0,0,0,1,0,0,1,0,0,0,0,0,0,0,0,0,0,0,0,0,0,0],"id":4,"left_children":[1,3,5,-1,7,9,-1,11,13,15,-1,17,-1,-1,19,-1,-1,21,23,-1,25,-1,-1,-1,-1,-1,-1],"loss_changes":[5.0590363E0,4.415207E-1,3.0929708E0,0E0,7.5156593E-1,2.069729E0,0E0,1.5348456E0,5.227623E-1,3.0573273E0,0E0,2.6676655E-2,0E0,0E0,4.7107244E0,0E0,0E0,1.5649939E-1,7.781011E-1,0E0,5.583E-1,0E0,0E0,0E0,0E0,0E0,0E0],"parents":[2147483647,0,0,1,1,2,2,4,4,5,5,7,7,8,8,9,9,11,11,14,14,17,17,18,18,20,20],"right_children":[2,4,6,-1,8,10,-1,12,14,16,-1,18,-1,-1,20,-1,-1,22,24,-1,26,-1,-1,-1,-1,-1,-1],"split_conditions":[1.05E0,5.95E-1,8.6E0,3.1847546E-1,7.45E0,7.9500003E0,2.8014922E-1,7.3500004E0,8.05E0,7.3E0,-2.8766814E-1,8.7E-1,-6.658438E-2,3.134039E-1,8.25E0,-2.601293E-1,1.6991048E-1,7.25E0,7.1499996E0,-2.75736E-1,8.35E0,2.4380524E-1,5.5451866E-2,-6.421212E-2,2.0104541E-1,1.7594112E-2,2.9817352E-1],"split_indices":[2,2,0,0,0,0,0,0,0,0,0,2,0,0,0,0,0,0,0,0,0,0,0,0,0,0,0],"split_type":[0,0,0,0,0,0,0,0,0,0,0,0,0,0,0,0,0,0,0,0,0,0,0,0,0,0,0],"sum_hessian":[8.097605E1,7.2231636E1,8.744411E0,4.1075615E1,3.1156025E1,6.4635096E0,2.280902E0,1.0376515E1,2.077951E1,4.8686314E0,1.5948784E0,8.401726E0,1.9747891E0,1.405209E1,6.727421E0,1.1976122E0,3.671019E0,6.05602E0,2.3457062E0,9.762531E-1,5.751168E0,4.8711467E0,1.1848735E0,1.1437395E0,1.2019668E0,8.6231095E-1,4.888857E0],"tree_param":{"num_deleted":"0","num_feature":"3","num_nodes":"27","size_leaf_vector":"0"}},{"base_weights":[7.780246E-1,8.658879E-1,9.5676444E-2,9.534782E-1,5.2985543E-1,-8.903666E-1,3.9867702E-1,9.964207E-1,3.8974085E-1,2.258885E-1,9.512127E-1,1.7220308E-1,7.8979474E-1,1.0922368E0,7.8285646E-1,5.5246204E-1,7.533631E-2,5.227011E-1,-7.428674E-1,5.68713E-1,-4.3037555E-1,1.3577624E-1,8.196018E-1,-8.444527E-2,6.784453E-1,1.7561225E-2,-7.1017253E-1,7.629538E-1,5.1494814E-2],"categories":[],"categories_nodes":[],"categories_segments":[],"categories_sizes":[],"default_left":[1,1,1,1,1,0,1,1,1,1,0,1,0,0,1,0,0,1,0,0,1,0,0,0,1,0,0,0,0],"id":5,"left_children":[1,3,5,7,9,-1,11,13,15,17,-1,19,-1,-1,21,-1,-1,23,-1,-1,25,-1,-1,-1,27,-1,-1,-1,-1],"loss_changes":[4.0058365E0,1.2694321E0,3.0152307E0,7.3918533E-1,1.6701174E0,0E0,5.284853E-1,1.7414093E-2,2.1107125E-1,3.2237484E0,0E0,1.6854161E0,0E0,0E0,2.866335E-1,0E0,0E0,8.265681E-1,0E0,0E0,3.8373196E-1,0E0,0E0,0E0,3.0961466E-1,0E0,0E0,0E0,0E0],"parents":[2147483647,0,0,1,1,2,2,3,3,4,4,6,6,7,7,8,8,9,9,11,11,14,14,17,17,20,20,24,24],"right_children":[2,4,6,8,10,-1,12,14,16,18,-1,20,-1,-1,22,-1,-1,24,-1,-1,26,-1,-1,-1,28,-1,-1,-1,-1],"split_conditions":[1.05E0,5.15E1,3.8E1,8.5E-1,8.45E1,-2.6711E-1,3.32E2,5.95E-1,3.05E1,7.3E1,2.8536382E-1,6.5E1,2.3693843E-1,3.2767105E-1,1.55E1,1.6573861E-1,2.2600893E-2,5.35E1,-2.2286023E-1,1.7061391E-1,1.505E0,4.073287E-2,2.4588054E-1,-2.5333581E-2,9.1999996E-1,5.268368E-3,-2.1305177E-1,2.2888616E-1,1.54484445E-2],"split_indices":[2,1,1,2,1,0,1,2,1,1,0,1,0,0,1,0,0,1,0,0,2,0,0,0,2,0,0,0,0],"split_type":[0,0,0,0,0,0,0,0,0,0,0,0,0,0,0,0,0,0,0,0,0,0,0,0,0,0,0,0,0],"sum_hessian":[6.7197716E1,5.929372E1,7.9039984E0,4.557632E1,1.37174E1,1.4022411E0,6.501757E0,4.1637104E1,3.9392161E0,8.861102E0,4.8562975E0,5.0296555E0,1.4721017E0,2.5901854E1,1.573525E1,2.0968268E0,1.8423892E0,7.1353703E0,1.7257318E0,3.0674245E0,1.9622312E0,1.0978212E0,1.4637429E1,1.5501454E0,5.5852246E0,1.1147788E0,8.474524E-1,4.7306395E0,8.545856E-1],"tree_param":{"num_deleted":"0","num_feature":"3","num_nodes":"29","size_leaf_vector":"0"}},{"base_weights":[6.9282883E-1,8.1088316E-1,4.0741748E-1,3.294054E-1,8.3264035E-1,-7.7717626E-1,6.048387E-1,5.6335026E-1,-1.644762E-1,-2.5144118E-1,-9.402954E-1,8.0623347E-1,1.5300286E-1,2.5810367E-1,8.588273E-1,-9.009243E-1,7.9782593E-1,8.3718576E-2,9.380532E-1],"categories":[],"categories_nodes":[],"categories_segments":[],"categories_sizes":[],"default_left":[1,1,0,0,0,1,1,0,0,0,0,1,0,0,0,0,0,0,0],"id":6,"left_children":[1,3,5,7,-1,9,11,-1,-1,-1,-1,13,15,-1,17,-1,-1,-1,-1],"loss_changes":[1.6038685E0,1.405487E-1,4.8682995E0,4.816414E-1,0E0,3.1495094E-2,1.3947158E0,0E0,0E0,0E0,0E0,1.0423756E-1,5.052951E0,0E0,5.2852964E-1,0E0,0E0,0E0,0E0],"parents":[2147483647,0,0,1,1,2,2,3,3,5,5,6,6,11,11,12,12,14,14],"right_children":[2,4,6,8,-1,10,12,-1,-1,-1,-1,14,16,-1,18,-1,-1,-1,-1],"split_conditions":[5E1,1.45E1,7.25E0,7.55E0,2.4979211E-1,6.45E1,7.95E0,1.6900508E-1,-4.9342863E-2,-7.543236E-2,-2.8208864E-1,5.4E1,8.25E0,7.7431105E-2,7.3500004E0,-2.7027732E-1,2.3934779E-1,2.5115574E-2,2.8141597E-1],"split_indices":[1,1,0,0,0,1,0,0,0,0,0,1,0,0,0,0,0,0,0],"split_type":[0,0,0,0,0,0,0,0,0,0,0,0,0,0,0,0,0,0,0],"sum_hessian":[5.64059E1,3.8599102E1,1.7806799E1,2.366628E0,3.6232475E1,2.124207E0,1.5682591E1,1.5104773E0,8.561507E-1,1.1048189E0,1.019388E0,1.0305029E1,5.377563E0,1.4194187E0,8.88561E0,1.890493E0,3.48707E0,1.0147253E0,7.8708844E0],"tree_param":{"num_deleted":"0","num_feature":"3","num_nodes":"19","size_leaf_vector":"0"}},{"base_weights":[5.965478E-1,7.14194E-1,3.3298483E-1,2.8215942E-1,7.362037E-1,-6.245366E-1,5.2217877E-1,5.002152E-1,-1.3938087E-1,5.323258E-1,8.453346E-1,-2.0613332E-1,-7.5536925E-1,7.189652E-1,1.2165839E-1,7.219476E-1,-3.5431117E-1,5.115802E-1,9.5974666E-1,3.9031106E-1,9.1638154E-1,-6.694308E-1,7.035138E-1,8.3069307E-1,2.3093058E-1,2.0940276E-2,-5.323198E-1,8.451204E-1,-1.1005972E-1,-1.7445096E-1,6.310524E-1,-8.489452E-1,-1.518991E-1,3.2927468E-1,-2.7025891E-2,3.4718475E-1,-5.710657E-1,7.22706E-1,1.9958141E-1],"categories":[],"categories_nodes":[],"categories_segments":[],"categories_sizes":[],"default_left":[1,1,0,0,0,1,1,0,0,1,1,0,0,1,0,0,0,1,0,0,0,1,0,0,1,0,0,0,1,0,1,0,0,0,0,0,0,0,0],"id":7,"left_children":[1,3,5,7,9,11,13,-1,-1,15,17,-1,-1,19,21,23,25,27,-1,29,-1,31,-1,-1,33,-1,-1,-1,35,-1,37,-1,-1,-1,-1,-1,-1,-1,-1],"loss_changes":[1.2877502E0,1.074276E-1,3.416193E0,3.664394E-1,2.3784637E-1,2.3275614E-2,1.0780597E0,0E0,0E0,2.5219996E0,2.1299267E-1,0E0,0E0,2.7246857E-1,3.267551E0,4.18674E-1,2.1459004E-1,1.5128809E0,0E0,8.4245616E-1,0E0,1.57866E-1,0E0,0E0,9.662597E-2,0E0,0E0,0E0,8.8882524E-1,0E0,1.3678551E-2,0E0,0E0,0E0,0E0,0E0,0E0,0E0,0E0],"parents":[2147483647,0,0,1,1,2,2,3,3,4,4,5,5,6,6,9,9,10,10,13,13,14,14,15,15,16,16,17,17,19,19,21,21,24,24,28,28,30,30],"right_children":[2,4,6,8,10,12,14,-1,-1,16,18,-1,-1,20,22,24,26,28,-1,30,-1,32,-1,-1,34,-1,-1,-1,36,-1,38,-1,-1,-1,-1,-1,-1,-1,-1],"split_conditions":[5E1,1.45E1,7.25E0,7.55E0,7.45E0,6.45E1,7.95E0,1.5006456E-1,-4.1814264E-2,3.45E1,3.15E1,-6.1839998E-2,-2.2661078E-1,7.7E1,8.25E0,7.3500004E0,6.95E0,7.75E0,2.8792402E-1,7.45E0,2.7491447E-1,7.35E1,2.1105415E-1,2.4920793E-1,2.4E1,6.282083E-3,-1.5969594E-1,2.5353613E-1,2.55E1,-5.2335292E-2,6.65E1,-2.5468358E-1,-4.5569733E-2,9.878241E-2,-8.107767E-3,1.0415543E-1,-1.7131972E-1,2.1681182E-1,5.9874427E-2],"split_indices":[1,1,0,0,0,1,0,0,0,1,1,0,0,1,0,0,0,0,0,0,0,1,0,0,1,0,0,0,1,0,1,0,0,0,0,0,0,0,0],"split_type":[0,0,0,0,0,0,0,0,0,0,0,0,0,0,0,0,0,0,0,0,0,0,0,0,0,0,0,0,0,0,0,0,0,0,0,0,0,0,0],"sum_hessian":[4.8200466E1,3.2143055E1,1.6057411E1,2.2280385E0,2.9915016E1,2.269632E0,1.3787778E1,1.3454323E0,8.8260615E-1,1.2479234E1,1.7435781E1,1.1541634E0,1.1154687E0,8.712175E0,5.0756035E0,1.0433587E1,2.0456467E0,5.8479514E0,1.1587831E1,4.386585E0,4.3255897E0,2.0872598E0,2.9883437E0,7.975478E0,2.4581094E0,9.420726E-1,1.103574E0,3.5719333E0,2.2760181E0,1.3933184E0,2.993267E0,1.074261E0,1.0129987E0,1.5794727E0,8.786367E-1,1.2666254E0,1.0093929E0,1.9121118E0,1.0811553E0],"tree_param":{"num_deleted":"0","num_feature":"3","num_nodes":"39","size_leaf_vector":"0"}},{"base_weights":[5.1647365E-1,6.318725E-1,2.7461213E-1,5.337099E-1,8.985442E-1,-5.0279784E-1,4.5186642E-1,5.842925E-1,-9.836183E-2,-1.6917405E-1,-6.071816E-1,6.4812136E-1,8.350931E-2,6.5109473E-1,2.1877666E-1,3.4096763E-1,8.525004E-1,-5.426679E-1,6.181146E-1,4.547506E-2,6.968488E-1,-1.3473283E-1,5.088861E-1,5.701535E-1,-2.3133074E-1,-6.8115926E-1,-1.2765533E-1,7.442738E-1,1.3967939E-1,4.6536576E-2,-2.4493088E-1,1.728325E-1,6.881217E-1],"categories":[],"categories_nodes":[],"categories_segments":[],"categories_sizes":[],"default_left":[1,1,0,1,0,1,1,1,0,0,0,1,0,1,0,1,0,1,0,0,1,1,0,1,0,0,0,0,0,0,0,0,0],"id":8,"left_children":[1,3,5,7,-1,9,11,13,-1,-1,-1,15,17,19,21,23,-1,25,-1,-1,27,29,-1,31,-1,-1,-1,-1,-1,-1,-1,-1,-1],"loss_changes":[1.0334558E0,2.6668072E-1,2.3957534E0,8.024168E-1,0E0,1.5520096E-2,9.1038084E-1,3.8784218E-1,0E0,0E0,0E0,2.46459E-1,2.2721446E0,4.6308756E-1,5.671822E-1,7.988827E-1,0E0,9.679651E-2,0E0,0E0,3.3287048E-1,7.0968255E-2,0E0,6.479168E-2,0E0,0E0,0E0,0E0,0E0,0E0,0E0,0E0,0E0],"parents":[2147483647,0,0,1,1,2,2,3,3,5,5,6,6,7,7,11,11,12,12,13,13,14,14,15,15,17,17,20,20,21,21,23,23],"right_children":[2,4,6,8,-1,10,12,14,-1,-1,-1,16,18,20,22,24,-1,26,-1,-1,28,30,-1,32,-1,-1,-1,-1,-1,-1,-1,-1,-1],"split_conditions":[5E1,4.05E1,7.25E0,3.85E1,2.6956326E-1,6.45E1,7.95E0,8.05E0,-2.950855E-2,-5.0752215E-2,-1.8215449E-1,7.7E1,8.25E0,1.45E1,8.35E0,6.65E1,2.5575012E-1,7.35E1,1.8543439E-1,1.3642518E-2,3.45E1,3E1,1.5266584E-1,5.4E1,-6.939922E-2,-2.0434779E-1,-3.82966E-2,2.2328214E-1,4.1903816E-2,1.3960973E-2,-7.3479265E-2,5.1849753E-2,2.0643651E-1],"split_indices":[1,1,0,1,0,1,0,0,0,0,0,1,0,1,0,1,0,1,0,0,1,1,0,1,0,0,0,0,0,0,0,0,0],"split_type":[0,0,0,0,0,0,0,0,0,0,0,0,0,0,0,0,0,0,0,0,0,0,0,0,0,0,0,0,0,0,0,0,0],"sum_hessian":[4.2244446E1,2.7507378E1,1.4737067E1,2.2300047E1,5.2073307E0,2.3952558E0,1.2341811E1,2.0717672E1,1.5823742E0,1.1953758E0,1.19988E0,7.5563912E0,4.7854195E0,1.685578E1,3.8618937E0,4.0852017E0,3.4711895E0,2.1970074E0,2.588412E0,1.3240478E0,1.5531732E1,1.9821486E0,1.879745E0,2.9197073E0,1.1654946E0,1.1664581E0,1.0305494E0,1.4003936E1,1.5277952E0,9.678281E-1,1.0143206E0,1.2327706E0,1.6869369E0],"tree_param":{"num_deleted":"0","num_feature":"3","num_nodes":"33","size_leaf_vector":"0"}},{"base_weights":[4.410814E-1,6.422316E-1,-1.8579823E-1,7.928276E-1,3.7554017E-1,-3.473511E-1,5.9025633E-1,5.709637E-1,9.565156E-1,-2.4551679E-1,6.469021E-1,-9.6030094E-2,-7.24564E-1,1.891495E-1,7.46613E-1,-8.821043E-1,3.980914E-1,1.8902348E-1,6.9647986E-1,-6.57965E-1,3.1866902E-1,7.3058265E-1,-6.79097E-1,5.482709E-1,2.2189854E-2,3.319459E-2,-9.63823E-1,5.919149E-1,3.0548943E-2,-1.4092839E-1,1.9925156E-1],"categories":[],"categories_nodes":[],"categories_segments":[],"categories_sizes":[],"default_left":[1,1,0,1,1,0,0,0,0,0,0,0,0,0,0,0,1,0,0,1,1,0,0,0,0,0,0,0,1,0,0],"id":9,"left_children":[1,3,5,7,9,11,-1,13,-1,15,17,19,-1,21,-1,-1,23,-1,-1,25,27,-1,-1,-1,-1,-1,-1,-1,29,-1,-1],"loss_changes":[4.981096E0,8.8360596E-1,1.4765468E0,1.03881836E-1,2.268035E0,7.8589916E-1,0E0,5.3479075E-1,0E0,2.207344E0,7.230878E-2,1.7403446E0,0E0,2.6187885E0,0E0,0E0,1.5390897E-1,0E0,0E0,6.9057775E-1,3.3249617E-1,0E0,0E0,0E0,0E0,0E0,0E0,0E0,1.21287E-1,0E0,0E0],"parents":[2147483647,0,0,1,1,2,2,3,3,4,4,5,5,7,7,9,9,10,10,11,11,13,13,16,16,19,19,20,20,28,28],"right_children":[2,4,6,8,10,12,-1,14,-1,16,18,20,-1,22,-1,-1,24,-1,-1,26,28,-1,-1,-1,-1,-1,-1,-1,30,-1,-1],"split_conditions":[8.7E-1,5.95E-1,8.6E0,4.05E-1,6.05E-1,8.05E0,1.770769E-1,7.3500004E0,2.869547E-1,7.6499996E0,7.1499996E0,7.25E0,-2.1736921E-1,7.1499996E0,2.2398391E-1,-2.646313E-1,8.05E0,5.6707047E-2,2.0894396E-1,9.5E-1,1.05E0,2.191748E-1,-2.0372911E-1,1.6448127E-1,6.6569564E-3,9.958377E-3,-2.8914693E-1,1.7757447E-1,1.61E0,-4.2278517E-2,5.977547E-2],"split_indices":[2,2,0,2,2,0,0,0,0,0,0,0,0,0,0,0,0,0,0,2,2,0,0,0,0,0,0,0,2,0,0],"split_type":[0,0,0,0,0,0,0,0,0,0,0,0,0,0,0,0,0,0,0,0,0,0,0,0,0,0,0,0,0,0,0],"sum_hessian":[3.755581E1,2.8413977E1,9.141832E0,1.689873E1,1.1515247E1,8.023895E0,1.1179368E0,9.079894E0,7.8188353E0,3.5304549E0,7.9847927E0,5.5684505E0,2.4554453E0,3.5153446E0,5.5645494E0,1.5886115E0,1.9418434E0,1.2502934E0,6.7344995E0,2.1153939E0,3.4530566E0,2.2628188E0,1.2525258E0,1.0598607E0,8.819827E-1,9.2242473E-1,1.1929691E0,1.2311044E0,2.2219522E0,1.18356E0,1.0383922E0],"tree_param":{"num_deleted":"0","num_feature":"3","num_nodes":"31","size_leaf_vector":"0"}},{"base_weights":[3.8269582E-1,5.6914353E-1,-1.4644833E-1,3.073837E-1,7.339361E-1,-3.2451037E-1,4.6235237E-1,7.2493106E-1,-1.1196022E-1,-8.370355E-2,-7.3961204E-1,8.3275884E-1,1.6203773E-1,1.7376477E-1,-4.5690137E-1,-6.858403E-1,2.3105147E-1,-1.6726498E-1,5.776677E-1,-1.1014313E0,2.2002691E-1,6.091346E-1,-8.490033E-2,-2.554557E-1,1.7235108E-1],"categories":[],"categories_nodes":[],"categories_segments":[],"categories_sizes":[],"default_left":[1,0,0,0,0,0,0,1,1,0,0,0,0,1,1,0,1,0,0,0,0,0,1,0,0],"id":10,"left_children":[1,3,5,7,-1,9,-1,11,13,15,-1,-1,-1,17,19,-1,21,-1,-1,-1,-1,-1,23,-1,-1],"loss_changes":[3.4651446E0,8.765936E-1,1.204433E0,2.1108942E0,0E0,7.4906665E-1,0E0,2.2573137E-1,7.347894E-1,1.3452889E0,0E0,0E0,0E0,6.9740045E-1,1.6770091E0,0E0,6.32321E-1,0E0,0E0,0E0,0E0,0E0,1.987086E-1,0E0,0E0],"parents":[2147483647,0,0,1,1,2,2,3,3,5,5,7,7,8,8,9,9,13,13,14,14,16,16,22,22],"right_children":[2,4,6,8,-1,10,-1,12,14,16,-1,-1,-1,18,20,-1,22,-1,-1,-1,-1,-1,24,-1,-1],"split_conditions":[8.7E-1,7.45E0,8.35E0,7.1499996E0,2.2018082E-1,8.05E0,1.3870572E-1,6.5E-1,5.95E-1,7.1499996E0,-2.2188362E-1,2.4982767E-1,4.861132E-2,4.5E-1,6.55E-1,-2.057521E-1,1.05E0,-5.0179496E-2,1.7330033E-1,-3.3042938E-1,6.6008076E-2,1.8274039E-1,1.61E0,-7.663672E-2,5.1705327E-2],"split_indices":[2,0,0,0,0,0,0,2,2,0,0,0,0,2,2,0,2,0,0,0,0,0,2,0,0],"split_type":[0,0,0,0,0,0,0,0,0,0,0,0,0,0,0,0,0,0,0,0,0,0,0,0,0],"sum_hessian":[3.3278053E1,2.4551548E1,8.726504E0,1.0592107E1,1.3959441E1,7.113048E0,1.6134565E0,4.9422765E0,5.64983E0,5.262081E0,1.8509673E0,3.7453852E0,1.1968915E0,3.3615808E0,2.2882488E0,1.4016715E0,3.8604095E0,2.1403146E0,1.2212663E0,8.5093683E-1,1.437312E0,1.3349767E0,2.5254326E0,1.5228062E0,1.0026265E0],"tree_param":{"num_deleted":"0","num_feature":"3","num_nodes":"25","size_leaf_vector":"0"}},{"base_weights":[3.213315E-1,6.7125744E-1,6.732512E-2,9.5146424E-1,-5.3943735E-1,-3.5663012E-1,2.0109592E-1,-1.3962482E0,5.421796E-1,-6.1472923E-2,-6.622696E-1,-3.1297466E-1,3.3178762E-1,3.209121E-1,-5.9586036E-1,1.0056437E-1,-5.474332E-1,6.956846E-1,5.358342E-2,-5.522811E-2,5.1279503E-1,8.1468076E-1,1.449404E-1,-6.0395416E-2,3.7380955E-1,6.0325496E-2,-3.8096297E-1,-1.5082282E-1,2.530623E-1,-4.6410855E-2,-1.8436508E-1,3.7878343E-1,3.6454163E-3],"categories":[],"categories_nodes":[],"categories_segments":[],"categories_sizes":[],"default_left":[1,1,1,0,1,1,1,0,0,1,0,1,1,1,0,0,0,1,1,0,0,0,0,1,0,1,0,1,1,0,0,0,0],"id":11,"left_children":[1,3,5,-1,7,9,11,-1,-1,13,-1,15,17,19,-1,-1,-1,21,23,-1,-1,-1,-1,25,-1,27,-1,29,31,-1,-1,-1,-1],"loss_changes":[2.6937504E0,4.872188E0,1.1473367E0,0E0,3.5864186E0,4.0219033E-1,1.1154076E0,0E0,0E0,9.2683697E-1,0E0,4.0085232E-1,1.22718E0,2.2668344E-1,0E0,0E0,0E0,2.3110509E-1,3.2047692E-1,0E0,0E0,0E0,0E0,2.8924364E-1,0E0,2.7670282E-1,0E0,3.4338608E-3,1.0641572E-1,0E0,0E0,0E0,0E0],"parents":[2147483647,0,0,1,1,2,2,4,4,5,5,6,6,9,9,11,11,12,12,13,13,17,17,18,18,23,23,25,25,27,27,28,28],"right_children":[2,4,6,-1,8,10,12,-1,-1,14,-1,16,18,20,-1,-1,-1,22,24,-1,-1,-1,-1,26,-1,28,-1,30,32,-1,-1,-1,-1],"split_conditions":[5.95E-1,5.95E1,2.85E1,2.8543928E-1,4.05E-1,8.5E-1,6.05E-1,-4.1887447E-1,1.6265388E-1,2.3E1,-1.986809E-1,3.85E1,8.7E-1,1.65E1,-1.7875811E-1,3.0169312E-2,-1.6422996E-1,7.35E1,1.1E2,-1.6568433E-2,1.5383852E-1,2.4440424E-1,4.3482125E-2,6.5E1,1.1214287E-1,3.95E1,-1.142889E-1,3.45E1,5.55E1,-1.3923257E-2,-5.5309527E-2,1.1363503E-1,1.093625E-3],"split_indices":[2,1,1,0,2,2,2,0,0,1,0,1,2,1,0,0,0,1,1,0,0,0,0,1,0,1,0,1,1,0,0,0,0],"split_type":[0,0,0,0,0,0,0,0,0,0,0,0,0,0,0,0,0,0,0,0,0,0,0,0,0,0,0,0,0,0,0,0,0],"sum_hessian":[2.9815E1,1.1848925E1,1.7966076E1,9.795859E0,2.0530653E0,3.9095845E0,1.4056491E1,9.832706E-1,1.0697948E0,2.5999408E0,1.3096437E0,2.5665016E0,1.1489989E1,1.748363E0,8.5157776E-1,1.1352395E0,1.4312623E0,4.3281074E0,7.161882E0,8.311911E-1,9.1717184E-1,3.1650226E0,1.1630845E0,5.880293E0,1.2815888E0,4.8613853E0,1.0189078E0,2.423664E0,2.437721E0,1.1688536E0,1.2548103E0,1.2759097E0,1.1618114E0],"tree_param":{"num_deleted":"0","num_feature":"3","num_nodes":"33","size_leaf_vector":"0"}},{"base_weights":[2.6466113E-1,1.6887245E-1,7.095943E-1,2.8323796E-1,-4.0347004E-1,5.6570023E-2,5.746405E-1,-7.725953E-2,-8.0448705E-1,4.4617233E-1,-3.7651134E-1,-2.9603928E-1,7.122055E-1,-5.045391E-1,2.5989258E-1,6.2431324E-1,-1.7320137E-1,-5.534481E-1,3.9711246E-1,7.888332E-1,1.4873847E-1,7.351053E-1,2.5758803E-1,7.8977786E-2,-8.6197335E-1,-3.3539154E-2,4.0166494E-1,-2.3159446E-1,3.7564442E-1],"categories":[],"categories_nodes":[],"categories_segments":[],"categories_sizes":[],"default_left":[0,0,0,0,1,1,1,1,0,0,1,0,0,0,0,1,0,0,0,0,0,0,1,0,0,0,0,0,0],"id":12,"left_children":[1,3,-1,5,7,9,11,13,-1,15,17,-1,19,-1,-1,21,-1,23,-1,-1,-1,-1,25,27,-1,-1,-1,-1,-1],"loss_changes":[1.0803958E0,1.7169695E0,0E0,1.354227E0,5.252381E-1,2.3476744E0,1.2979774E0,6.471845E-1,0E0,9.089649E-1,1.1314299E0,0E0,2.3377371E-1,0E0,0E0,4.8497677E-2,0E0,1.2072122E0,0E0,0E0,0E0,0E0,1.3501355E-1,3.4777236E-1,0E0,0E0,0E0,0E0,0E0],"parents":[2147483647,0,0,1,1,3,3,4,4,5,5,6,6,7,7,9,9,10,10,12,12,15,15,17,17,22,22,23,23],"right_children":[2,4,-1,6,8,10,12,14,-1,16,18,-1,20,-1,-1,22,-1,24,-1,-1,-1,-1,26,28,-1,-1,-1,-1,-1],"split_conditions":[8.35E0,8.05E0,2.128783E-1,7.45E0,5.85E1,3.45E1,2.05E1,3.4E1,-2.4134612E-1,7.3500004E0,9.9E1,-8.8811785E-2,7.95E0,-1.5136173E-1,7.796778E-2,2.75E1,-5.1960412E-2,7.05E0,1.1913374E-1,2.3664998E-1,4.4621542E-2,2.205316E-1,2.95E1,6.8E0,-2.58592E-1,-1.0061746E-2,1.20499484E-1,-6.947834E-2,1.1269333E-1],"split_indices":[0,0,0,0,1,1,1,1,0,0,1,0,0,0,0,1,0,0,0,0,0,0,1,0,0,0,0,0,0],"split_type":[0,0,0,0,0,0,0,0,0,0,0,0,0,0,0,0,0,0,0,0,0,0,0,0,0,0,0,0,0],"sum_hessian":[2.71614E1,2.3484926E1,3.6764736E0,1.9994707E1,3.4902196E0,1.1918225E1,8.076482E0,2.5822923E0,9.079273E-1,6.258141E0,5.6600842E0,9.44778E-1,7.131704E0,9.199493E-1,1.6623429E0,4.8540654E0,1.4040753E0,4.838147E0,8.219373E-1,5.9258637E0,1.20584E0,2.956392E0,1.8976736E0,1.8303161E0,3.007831E0,8.822267E-1,1.0154469E0,1.0013618E0,8.289541E-1],"tree_param":{"num_deleted":"0","num_feature":"3","num_nodes":"29","size_leaf_vector":"0"}},{"base_weights":[2.2159813E-1,5.953909E-1,-1.2872224E-2,3.4402838E-1,8.154068E-1,-1.5359782E-1,5.679781E-1,6.79453E-1,4.95836E-2,4.058406E-2,-8.184883E-1,-2.5338537E-1,2.1375354E-1,-2.1418606E-1,4.1602442E-1,-1.1665306E0,-1.3505231E-1,3.0151019E-1,-1.5544176E-2,-7.126434E-1,-2.2615878E-2,5.720822E-1,-1.1028426E-1,-3.236135E-1,2.3563722E-1,8.258862E-2,7.2168726E-1,1.00604914E-1,-5.5328065E-1,4.8340714E-1,2.9658502E-2,1.9077606E-1,-1.0972301E-1],"categories":[],"categories_nodes":[],"categories_segments":[],"categories_sizes":[],"default_left":[1,1,0,1,0,0,0,0,0,0,1,0,1,1,1,0,0,0,0,0,0,0,0,1,1,0,0,0,0,0,0,0,0],"id":13,"left_children":[1,3,5,7,-1,9,-1,-1,11,13,15,-1,17,19,21,-1,-1,-1,-1,-1,23,25,-1,27,29,-1,-1,-1,-1,-1,31,-1,-1],"loss_changes":[2.310656E0,2.8082323E-1,1.4871788E0,6.050628E-1,0E0,1.9148145E0,0E0,0E0,2.791208E-1,1.25913E0,6.3726234E-1,0E0,7.462749E-2,7.427701E-1,4.9716336E-1,0E0,0E0,0E0,0E0,0E0,6.0280037E-1,2.507372E-1,0E0,4.0147132E-1,2.0125526E-1,0E0,0E0,0E0,0E0,0E0,9.665886E-2,0E0,0E0],"parents":[2147483647,0,0,1,1,2,2,3,3,5,5,8,8,9,9,10,10,12,12,13,13,14,14,20,20,21,21,23,23,24,24,30,30],"right_children":[2,4,6,8,-1,10,-1,-1,12,14,16,-1,18,20,22,-1,-1,-1,-1,-1,24,26,-1,28,30,-1,-1,-1,-1,-1,32,-1,-1],"split_conditions":[5.95E-1,4.05E-1,8.35E0,3.9E-1,2.4462205E-1,8.05E0,1.7039344E-1,2.0383592E-1,7.25E0,7.45E0,9.5E-1,-7.6015614E-2,7.75E0,6.05E-1,1.3E0,-3.499592E-1,-4.0515695E-2,9.045306E-2,-4.663253E-3,-2.1379302E-1,7.1499996E0,7.6499996E0,-3.308528E-2,8.7E-1,7.95E-1,2.4776587E-2,2.1650618E-1,3.0181475E-2,-1.659842E-1,1.4502215E-1,7.3500004E0,5.7232823E-2,-3.2916903E-2],"split_indices":[2,2,0,2,0,0,0,0,0,0,2,0,0,2,2,0,0,0,0,0,0,0,0,2,2,0,0,0,0,0,0,0,0],"split_type":[0,0,0,0,0,0,0,0,0,0,0,0,0,0,0,0,0,0,0,0,0,0,0,0,0,0,0,0,0,0,0,0,0],"sum_hessian":[2.5276863E1,9.150241E0,1.6126621E1,5.46746E0,3.682781E0,1.3573631E1,2.5529897E0,1.9446205E0,3.5228395E0,1.1232215E1,2.341417E0,1.0470738E0,2.4757657E0,6.9473314E0,4.2848835E0,1.0830225E0,1.2583946E0,1.5627445E0,9.130213E-1,1.1736175E0,5.7737136E0,3.2378461E0,1.0470372E0,2.5493379E0,3.224376E0,1.1212535E0,2.1165926E0,1.0927927E0,1.4565451E0,8.5228777E-1,2.3720882E0,9.2922306E-1,1.4428651E0],"tree_param":{"num_deleted":"0","num_feature":"3","num_nodes":"33","size_leaf_vector":"0"}},{"base_weights":[1.866645E-1,5.3671885E-1,-1.3336375E-2,8.893394E-1,-5.139089E-1,-2.0234722E-1,3.0365738E-1,-8.2473344E-1,8.064222E-2,-5.1055815E-2,-5.969573E-1,4.564641E-1,-3.3787847E-1,-4.0237203E-1,1.7507038E-1,-8.3960944E-1,-9.210953E-4,-3.637427E-3,5.376151E-1,1.6323839E-1,-7.5006515E-1,5.6396306E-1,-2.288918E-2,8.1014305E-2,6.546459E-1,-6.839037E-1,3.535956E-1,5.900577E-1,5.827234E-4],"categories":[],"categories_nodes":[],"categories_segments":[],"categories_sizes":[],"default_left":[1,1,1,0,1,1,1,0,0,1,1,1,0,1,1,0,0,0,1,0,0,0,1,0,0,0,1,0,0],"id":14,"left_children":[1,3,5,-1,7,9,11,-1,-1,13,15,17,-1,19,21,-1,-1,-1,23,-1,-1,-1,25,-1,-1,-1,27,-1,-1],"loss_changes":[1.7340788E0,3.7886915E0,1.0604347E0,0E0,6.0124964E-1,6.289439E-1,8.0397886E-1,0E0,0E0,7.9159945E-1,4.284289E-1,2.1770537E-1,0E0,8.8115746E-1,4.9173623E-1,0E0,0E0,0E0,2.0980167E-1,0E0,0E0,0E0,1.5067091E0,0E0,0E0,0E0,3.2499433E-1,0E0,0E0],"parents":[2147483647,0,0,1,1,2,2,4,4,5,5,6,6,9,9,10,10,11,11,13,13,14,14,18,18,22,22,26,26],"right_children":[2,4,6,-1,8,10,12,-1,-1,14,16,18,-1,20,22,-1,-1,-1,24,-1,-1,-1,26,-1,-1,-1,28,-1,-1],"split_conditions":[5.95E-1,5.95E1,5.4E1,2.6680183E-1,7.7E1,1.05E0,1.505E0,-2.4742004E-1,2.4192668E-2,6.05E-1,1.6500001E0,7.5E-1,-1.0136355E-1,3.4E1,2.3E1,-2.5188285E-1,-2.7632862E-4,-1.0912281E-3,6.3E1,4.897152E-2,-2.2501956E-1,1.6918892E-1,2.85E1,2.4304293E-2,1.9639379E-1,-2.0517112E-1,8.5E-1,1.770173E-1,1.7481703E-4],"split_indices":[2,1,1,0,1,2,2,0,0,2,2,2,0,1,1,0,0,0,1,0,0,0,1,0,0,0,2,0,0],"split_type":[0,0,0,0,0,0,0,0,0,0,0,0,0,0,0,0,0,0,0,0,0,0,0,0,0,0,0,0,0],"sum_hessian":[2.366636E1,7.9929705E0,1.567339E1,6.0993657E0,1.8936045E0,1.004539E1,5.6280003E0,9.892716E-1,9.04333E-1,8.077791E0,1.967599E0,4.778336E0,8.496643E-1,2.8580413E0,5.2197495E0,1.107905E0,8.5969406E-1,8.5963666E-1,3.9186995E0,1.2900159E0,1.5680255E0,1.1370764E0,4.082673E0,1.1447303E0,2.7739692E0,1.1852012E0,2.897472E0,1.333051E0,1.5644209E0],"tree_param":{"num_deleted":"0","num_feature":"3","num_nodes":"29","size_leaf_vector":"0"}},{"base_weights":[1.4799754E-1,6.784863E-2,5.6810814E-1,1.641905E-1,-3.4964228E-1,1.479676E-1,6.510661E-1,-9.5487863E-4,4.1989678E-1,-5.5988744E-2,-6.758461E-1,3.4718055E-1,-3.3680964E-1,-2.6927117E-1,5.7222587E-1,-3.9139107E-1,2.6224086E-1,5.496115E-1,-2.71018E-1,-8.77092E-1,-6.523E-2,7.594341E-1,1.6338438E-1,6.5141314E-1,2.3574072E-1,-3.467687E-1,2.2363345E-1,-3.5509583E-1,5.6534255E-1,-3.9718416E-2,3.809253E-1,2.3765498E-1,-7.8976655E-1,3.8708605E-2,2.7785107E-1],"categories":[],"categories_nodes":[],"categories_segments":[],"categories_sizes":[],"default_left":[0,0,1,0,1,0,0,1,1,1,0,0,1,0,1,0,0,1,0,0,0,0,1,0,1,0,0,0,0,0,0,0,0,0,0],"id":15,"left_children":[1,3,5,7,9,-1,-1,11,13,15,-1,17,19,-1,21,-1,-1,23,-1,-1,25,-1,27,-1,29,31,33,-1,-1,-1,-1,-1,-1,-1,-1],"loss_changes":[7.3440284E-1,8.784738E-1,2.7123213E-2,7.2954035E-1,3.594039E-1,0E0,0E0,1.4602247E0,8.656143E-1,4.5195052E-1,0E0,9.165321E-1,8.752634E-1,0E0,3.252641E-1,0E0,0E0,4.627824E-3,0E0,0E0,5.093546E-1,0E0,8.505709E-1,0E0,1.2629412E-1,9.8533916E-1,2.1615535E-2,0E0,0E0,0E0,0E0,0E0,0E0,0E0,0E0],"parents":[2147483647,0,0,1,1,2,2,3,3,4,4,7,7,8,8,9,9,11,11,12,12,14,14,17,17,20,20,22,22,24,24,25,25,26,26],"right_children":[2,4,6,8,10,-1,-1,12,14,16,-1,18,20,-1,22,-1,-1,24,-1,-1,26,-1,28,-1,30,32,34,-1,-1,-1,-1,-1,-1,-1,-1],"split_conditions":[8.35E0,8.05E0,3.65E1,7.45E0,5.85E1,4.4390284E-2,1.9531985E-1,3.45E1,2.45E1,3.75E1,-2.0275384E-1,7.3500004E0,4.45E1,-8.0781356E-2,5.95E1,-1.1741733E-1,7.867226E-2,2.75E1,-8.13054E-2,-2.6312762E-1,7.25E0,2.2783025E-1,7.25E1,1.9542395E-1,2.95E1,7.05E0,7.3500004E0,-1.0652875E-1,1.6960277E-1,-1.1915525E-2,1.14277594E-1,7.12965E-2,-2.3692997E-1,1.1612582E-2,8.335532E-2],"split_indices":[0,0,1,0,1,0,0,1,1,1,0,0,1,0,1,0,0,1,0,0,0,0,1,0,1,0,0,0,0,0,0,0,0,0,0],"split_type":[0,0,0,0,0,0,0,0,0,0,0,0,0,0,0,0,0,0,0,0,0,0,0,0,0,0,0,0,0,0,0,0,0,0,0],"sum_hessian":[2.1955626E1,1.9413424E1,2.5422013E0,1.6266438E1,3.1469872E0,8.7820065E-1,1.6640006E0,1.0488687E1,5.77775E0,2.2727032E0,8.742841E-1,5.133626E0,5.355061E0,9.069283E-1,4.8708215E0,9.945658E-1,1.2781374E0,3.9508533E0,1.1827723E0,1.0455141E0,4.309547E0,2.752793E0,2.1180286E0,2.1712172E0,1.7796363E0,2.0809271E0,2.22862E0,9.7586244E-1,1.1421661E0,8.6496454E-1,9.146717E-1,1.0971048E0,9.8382235E-1,8.938469E-1,1.3347731E0],"tree_param":{"num_deleted":"0","num_feature":"3","num_nodes":"35","size_leaf_vector":"0"}},{"base_weights":[1.2155556E-1,4.7408918E-1,-6.388837E-2,2.1481173E-1,7.2701615E-1,-1.7099807E-1,4.5087296E-1,5.60055E-1,-3.317203E-2,-1.9183924E-2,-6.2150884E-1,-2.0985681E-1,1.8117793E-1,-1.8305051E-1,3.9598987E-1,-8.6622316E-1,-7.388612E-2,-5.343595E-1,-3.0736383E-3,6.1545193E-1,-7.983244E-2,-2.9049203E-1,2.3530188E-1,3.8548872E-2,-4.383646E-1,4.8331845E-1,2.3209741E-2,1.6958718E-1,-9.785297E-2],"categories":[],"categories_nodes":[],"categories_segments":[],"categories_sizes":[],"default_left":[1,1,0,1,0,0,0,0,0,0,1,0,0,1,1,0,0,0,0,0,0,1,1,0,0,0,0,0,0],"id":16,"left_children":[1,3,5,7,-1,9,-1,-1,11,13,15,-1,-1,17,19,-1,-1,-1,21,-1,-1,23,25,-1,-1,-1,27,-1,-1],"loss_changes":[1.4498236E0,3.4245765E-1,9.1020644E-1,4.6155208E-1,0E0,8.9310455E-1,0E0,0E0,1.8781589E-1,8.160334E-1,3.7868786E-1,0E0,0E0,5.370647E-1,4.0512335E-1,0E0,0E0,0E0,5.2326024E-1,0E0,0E0,1.8513659E-1,2.0876384E-1,0E0,0E0,0E0,7.51565E-2,0E0,0E0],"parents":[2147483647,0,0,1,1,2,2,3,3,5,5,8,8,9,9,10,10,13,13,14,14,18,18,21,21,22,22,26,26],"right_children":[2,4,6,8,-1,10,-1,-1,12,14,16,-1,-1,18,20,-1,-1,-1,22,-1,-1,24,26,-1,-1,-1,28,-1,-1],"split_conditions":[5.95E-1,4.05E-1,8.35E0,3.9E-1,2.1810485E-1,8.05E0,1.352619E-1,1.6801651E-1,7.3500004E0,7.6499996E0,9.5E-1,-6.295705E-2,5.4353382E-2,6.05E-1,1.3E0,-2.5986695E-1,-2.2165837E-2,-1.6030785E-1,7.1499996E0,1.8463558E-1,-2.3949733E-2,8.7E-1,7.95E-1,1.1564662E-2,-1.3150938E-1,1.4499554E-1,7.3500004E0,5.0876155E-2,-2.9355891E-2],"split_indices":[2,2,0,2,0,0,0,0,0,0,2,0,0,2,2,0,0,0,0,0,0,2,2,0,0,0,0,0,0],"split_type":[0,0,0,0,0,0,0,0,0,0,0,0,0,0,0,0,0,0,0,0,0,0,0,0,0,0,0,0,0],"sum_hessian":[2.0713652E1,6.603576E0,1.4110076E1,4.174039E0,2.4295373E0,1.2232576E1,1.8774997E0,1.2187957E0,2.955243E0,9.929195E0,2.3033803E0,1.6314392E0,1.3238039E0,7.5201406E0,2.409055E0,1.1898761E0,1.1135042E0,1.8804731E0,5.639668E0,1.4478285E0,9.612264E-1,2.4576972E0,3.1819706E0,9.912694E-1,1.4664279E0,8.7728107E-1,2.3046894E0,8.6182827E-1,1.4428612E0],"tree_param":{"num_deleted":"0","num_feature":"3","num_nodes":"29","size_leaf_vector":"0"}},{"base_weights":[1.08566634E-1,4.571905E-2,4.593112E-1,1.3686126E-1,-2.4909717E-1,7.228017E-2,5.692844E-1,1.2549558E-3,4.0557197E-1,1.0726272E-1,-7.0575416E-1,3.1920043E-1,-2.6371434E-1,-3.0890855E-1,6.189563E-1,-2.868239E-1,3.3461478E-1,5.469779E-1,-2.9465324E-1,-8.0434966E-1,5.1891203E-3,2.2101933E-1,-3.4052828E-1,-5.3431947E-2,4.709563E-1,-1.4154363E-1,6.58586E-2],"categories":[],"categories_nodes":[],"categories_segments":[],"categories_sizes":[],"default_left":[0,0,1,0,1,0,0,1,1,1,0,0,1,0,0,0,0,0,0,0,1,1,0,0,0,0,0],"id":17,"left_children":[1,3,5,7,9,-1,-1,11,13,15,-1,17,19,-1,-1,-1,-1,-1,-1,-1,21,23,-1,25,-1,-1,-1],"loss_changes":[4.3831772E-1,5.387451E-1,8.891356E-2,5.457634E-1,8.5514593E-1,0E0,0E0,1.008059E0,9.5730376E-1,4.1479045E-1,0E0,9.2142713E-1,9.5337594E-1,0E0,0E0,0E0,0E0,0E0,0E0,0E0,4.747568E-1,2.9286426E-1,0E0,3.8312804E-2,0E0,0E0,0E0],"parents":[2147483647,0,0,1,1,2,2,3,3,4,4,7,7,8,8,9,9,11,11,12,12,20,20,21,21,23,23],"right_children":[2,4,6,8,10,-1,-1,12,14,16,-1,18,20,-1,-1,-1,-1,-1,-1,-1,22,24,-1,26,-1,-1,-1],"split_conditions":[8.35E0,7.95E0,3.65E1,7.45E0,5.75E1,2.168405E-2,1.7078532E-1,3.15E1,2.75E1,3.4E1,-2.1172626E-1,7.3500004E0,4.05E1,-9.267257E-2,1.856869E-1,-8.604717E-2,1.0038444E-1,1.6409338E-1,-8.8395976E-2,-2.413049E-1,7.3E1,5.95E1,-1.0215849E-1,7.2E0,1.412869E-1,-4.246309E-2,1.9757582E-2],"split_indices":[0,0,1,0,1,0,0,1,1,1,0,0,1,0,0,0,0,0,0,0,1,1,0,0,0,0,0],"split_type":[0,0,0,0,0,0,0,0,0,0,0,0,0,0,0,0,0,0,0,0,0,0,0,0,0,0,0],"sum_hessian":[1.9836893E1,1.7781155E1,2.0557384E0,1.3991475E1,3.7896795E0,8.2158166E-1,1.2341568E0,9.966497E0,4.0249767E0,2.5583453E0,1.2313343E0,4.4373293E0,5.5291686E0,8.226876E-1,3.2022893E0,8.402651E-1,1.7180802E0,3.3158786E0,1.1214507E0,1.1751956E0,4.353973E0,2.9025898E0,1.4513834E0,1.7581811E0,1.1444087E0,9.039504E-1,8.542307E-1],"tree_param":{"num_deleted":"0","num_feature":"3","num_nodes":"27","size_leaf_vector":"0"}},{"base_weights":[8.311612E-2,3.479981E-2,5.036175E-1,-2.1335095E-2,4.3340322E-1,7.207504E-2,-5.710858E-1,2.0978661E-1,-2.878054E-2,4.7478604E-1,-1.07815795E-1,-3.8691702E-1,1.4306253E-1,-5.7371545E-1,2.206162E-1,-5.5688596E-1,-1.9531742E-2,3.438896E-1,-1.3143373E-1,3.2433704E-1,-1.5711008E-2,5.181519E-1,-1.294125E-1,-3.682782E-1,2.1347848E-1,1.09062046E-1,6.141212E-1,-5.035893E-1,-4.0943123E-2],"categories":[],"categories_nodes":[],"categories_segments":[],"categories_sizes":[],"default_left":[0,1,0,1,0,0,0,1,1,0,1,0,1,0,1,0,0,0,1,0,0,0,0,0,0,0,0,0,0],"id":18,"left_children":[1,3,-1,5,-1,7,-1,9,11,-1,13,15,17,-1,19,-1,-1,21,23,-1,-1,25,-1,27,-1,-1,-1,-1,-1],"loss_changes":[3.8531554E-1,4.312165E-1,0E0,9.389847E-1,0E0,2.2593226E-1,0E0,6.246718E-1,6.719227E-1,0E0,7.255147E-1,2.0882475E-1,4.5865092E-1,0E0,7.907519E-2,0E0,0E0,4.470983E-1,3.965854E-1,0E0,0E0,7.308859E-2,0E0,9.784663E-2,0E0,0E0,0E0,0E0,0E0],"parents":[2147483647,0,0,1,1,3,3,5,5,7,7,8,8,10,10,11,11,12,12,14,14,17,17,18,18,21,21,23,23],"right_children":[2,4,-1,6,-1,8,-1,10,12,-1,14,16,18,-1,20,-1,-1,22,24,-1,-1,26,-1,28,-1,-1,-1,-1,-1],"split_conditions":[8.55E0,1.1E2,1.5108526E-1,7.3E1,1.3002098E-1,7.3500004E0,-1.7132574E-1,3.1E1,2.85E1,1.4243582E-1,4E1,7.6499996E0,5.15E1,-1.7211464E-1,5.4E1,-1.670658E-1,-5.8595226E-3,8.25E0,6.3E1,9.730112E-2,-4.7133025E-3,7.55E0,-3.8823754E-2,8.05E0,6.4043544E-2,3.2718614E-2,1.8423636E-1,-1.510768E-1,-1.2282938E-2],"split_indices":[0,1,0,1,0,0,0,1,1,0,1,0,1,0,1,0,0,0,1,0,0,0,0,0,0,0,0,0,0],"split_type":[0,0,0,0,0,0,0,0,0,0,0,0,0,0,0,0,0,0,0,0,0,0,0,0,0,0,0,0,0],"sum_hessian":[1.8827724E1,1.785851E1,9.692146E-1,1.6483614E1,1.3748951E0,1.48323E1,1.6513147E0,5.8138313E0,9.018469E0,2.8995845E0,2.914247E0,2.5183752E0,6.5000935E0,8.961603E-1,2.0180867E0,1.3691403E0,1.1492349E0,3.6077714E0,2.8923218E0,1.1437176E0,8.74369E-1,2.567646E0,1.0401254E0,1.6746367E0,1.2176852E0,8.9384884E-1,1.6737971E0,8.038826E-1,8.7075406E-1],"tree_param":{"num_deleted":"0","num_feature":"3","num_nodes":"29","size_leaf_vector":"0"}},{"base_weights":[6.914683E-2,1.3714062E-2,3.9536554E-1,8.37015E-2,-2.592843E-1,2.2592312E-2,4.566981E-1,-5.3746116E-1,1.366859E-2,1.4184184E-1,-2.0054616E-1,1.6094494E-3,1.8621648E-2,-2.263199E-1,2.1609354E-1,-5.63223E-1,3.8570013E-2,-8.195028E-2,4.535834E-1,-2.7302322E-1,3.356011E-1,1.916088E-1,-5.842835E-1,4.3058452E-1,-3.008159E-1],"categories":[],"categories_nodes":[],"categories_segments":[],"categories_sizes":[],"default_left":[0,0,0,1,0,1,0,0,1,0,1,0,0,0,1,0,0,1,0,0,0,0,0,0,0],"id":19,"left_children":[1,3,-1,5,7,9,-1,-1,11,13,15,-1,-1,-1,17,-1,19,21,-1,-1,-1,23,-1,-1,-1],"loss_changes":[3.42116E-1,3.5536492E-1,0E0,3.2374036E-1,2.9644608E-1,3.9152196E-1,0E0,0E0,1.4306547E-4,3.0800825E-1,4.6977928E-1,0E0,0E0,0E0,6.3167244E-1,0E0,4.6642926E-1,7.4017686E-1,0E0,0E0,0E0,5.664445E-1,0E0,0E0,0E0],"parents":[2147483647,0,0,1,1,3,3,4,4,5,5,8,8,9,9,10,10,14,14,16,16,17,17,21,21],"right_children":[2,4,-1,6,8,10,-1,-1,12,14,16,-1,-1,-1,18,-1,20,22,-1,-1,-1,24,-1,-1,-1],"split_conditions":[8.35E0,8.05E0,1.1860967E-1,9.9E1,8.15E0,5.25E1,1.3700943E-1,-1.6123836E-1,4.65E1,6.8500004E0,6.15E1,4.8283485E-4,5.5864947E-3,-6.789597E-2,2.85E1,-1.689669E-1,7.3500004E0,2.4E1,1.3607502E-1,-8.190697E-2,1.0068033E-1,7.55E0,-1.7528504E-1,1.2917536E-1,-9.024478E-2],"split_indices":[0,0,0,1,0,1,0,0,1,0,1,0,0,0,1,0,0,1,0,0,0,0,0,0,0],"split_type":[0,0,0,0,0,0,0,0,0,0,0,0,0,0,0,0,0,0,0,0,0,0,0,0,0],"sum_hessian":[1.821883E1,1.6463335E1,1.7554952E0,1.3655843E1,2.8074918E0,1.2644779E1,1.0110637E0,9.105019E-1,1.89699E0,8.478198E0,4.166581E0,9.3805677E-1,9.5893323E-1,1.0791994E0,7.3989987E0,1.1169789E0,3.0496023E0,3.5716274E0,3.8273714E0,1.5277643E0,1.521838E0,2.7128398E0,8.5878766E-1,1.9110045E0,8.0183524E-1],"tree_param":{"num_deleted":"0","num_feature":"3","num_nodes":"25","size_leaf_vector":"0"}},{"base_weights":[4.7820076E-2,4.29766E-1,-1.4314723E-1,8.063367E-1,-3.659825E-1,-3.2051948E-1,1.9551562E-1,-1.6278325E-1,-6.425665E-1,3.984042E-1,-1.5951426E-1,-4.0994778E-1,4.425158E-2,4.637291E-1,8.99734E-2,1.3024735E-2,-5.745905E-1,4.9841085E-1,-1.7913742E-1,-5.886347E-1,1.8912096E-1,2.3069045E-1,3.5993177E-2],"categories":[],"categories_nodes":[],"categories_segments":[],"categories_sizes":[],"default_left":[1,1,1,0,0,1,1,1,0,1,0,1,1,0,0,0,0,0,1,0,1,0,0],"id":20,"left_children":[1,3,5,-1,-1,7,9,11,-1,13,-1,15,17,-1,-1,-1,-1,-1,19,-1,21,-1,-1],"loss_changes":[1.4203308E0,2.2307377E0,8.537711E-1,0E0,0E0,3.5370326E-1,4.3436038E-1,3.9656252E-1,0E0,3.0039549E-2,0E0,2.4901456E-1,5.8913183E-1,0E0,0E0,0E0,0E0,0E0,7.202652E-1,0E0,1.0047786E-2,0E0,0E0],"parents":[2147483647,0,0,1,1,2,2,5,5,6,6,7,7,9,9,11,11,12,12,18,18,20,20],"right_children":[2,4,6,-1,-1,8,10,12,-1,14,-1,16,18,-1,-1,-1,-1,-1,20,-1,22,-1,-1],"split_conditions":[5.95E-1,5.95E1,5.4E1,2.4190103E-1,-1.0979476E-1,1.05E0,1.1500001E0,6.05E-1,-1.9276996E-1,7.8E1,-4.7854282E-2,3.4E1,2.3E1,1.3911875E-1,2.6992021E-2,3.9074207E-3,-1.7237715E-1,1.4952326E-1,2.85E1,-1.7659043E-1,3.75E1,6.920714E-2,1.0797953E-2],"split_indices":[2,1,1,0,0,2,2,2,0,1,0,1,1,0,0,0,0,0,1,0,1,0,0],"split_type":[0,0,0,0,0,0,0,0,0,0,0,0,0,0,0,0,0,0,0,0,0,0,0],"sum_hessian":[1.7629368E1,5.459525E0,1.2169844E1,3.6967926E0,1.7627326E0,8.021968E0,4.1478753E0,6.3951397E0,1.6268281E0,2.5617461E0,1.5861295E0,2.4683075E0,3.9268324E0,1.6984974E0,8.632486E-1,9.496126E-1,1.5186949E0,8.8877696E-1,3.0380554E0,1.1551354E0,1.8829201E0,1.0825254E0,8.003948E-1],"tree_param":{"num_deleted":"0","num_feature":"3","num_nodes":"23","size_leaf_vector":"0"}},{"base_weights":[3.930049E-2,-1.41444355E-2,3.615814E-1,-6.69599E-2,3.6135846E-1,1.2853333E-2,-4.526771E-1,-4.7318257E-2,2.6626772E-1,3.908109E-2,-2.588616E-1,3.366739E-1,5.991791E-2,2.117412E-1,-7.8170836E-2,-3.5419944E-1,1.6311713E-2,4.623841E-1,-6.0324043E-2,-2.4490058E-1,2.6955506E-1,7.0658787E-3,-9.2026114E-2,-4.6851963E-2,-3.532428E-1,1.3461895E-1,-2.108869E-1],"categories":[],"categories_nodes":[],"categories_segments":[],"categories_sizes":[],"default_left":[0,1,0,1,0,1,0,1,1,0,0,0,0,1,1,0,0,0,0,1,0,0,0,0,0,0,0],"id":21,"left_children":[1,3,-1,5,-1,7,-1,9,11,13,15,-1,-1,17,19,-1,-1,-1,21,23,-1,-1,-1,25,-1,-1,-1],"loss_changes":[3.110968E-1,3.4548151E-1,0E0,4.690176E-1,0E0,2.175203E-1,0E0,2.2413018E-1,1.9483358E-2,2.0245132E-1,9.829892E-2,0E0,0E0,2.9952893E-1,4.2541817E-1,0E0,0E0,0E0,6.6208197E-3,8.459911E-2,0E0,0E0,0E0,1.1232905E-1,0E0,0E0,0E0],"parents":[2147483647,0,0,1,1,3,3,5,5,7,7,8,8,9,9,10,10,13,13,14,14,18,18,19,19,23,23],"right_children":[2,4,-1,6,-1,8,-1,10,12,14,16,-1,-1,18,20,-1,-1,-1,22,24,-1,-1,-1,26,-1,-1,-1],"split_conditions":[8.35E0,1.1E2,1.0847442E-1,7.3E1,1.0840754E-1,6.25E1,-1.3580313E-1,5E1,6.65E1,7.25E0,8.05E0,1.0100217E-1,1.7975373E-2,2.75E1,3.55E1,-1.0625984E-1,4.893514E-3,1.3871524E-1,7.05E0,2.4E1,8.086652E-2,2.1197638E-3,-2.7607836E-2,7.55E0,-1.0597285E-1,4.0385686E-2,-6.326607E-2],"split_indices":[0,1,0,1,0,1,0,1,1,0,0,0,0,1,1,0,0,0,0,1,0,0,0,0,0,0,0],"split_type":[0,0,0,0,0,0,0,0,0,0,0,0,0,0,0,0,0,0,0,0,0,0,0,0,0,0,0],"sum_hessian":[1.6764599E1,1.5200038E1,1.5645618E0,1.4046097E1,1.1539409E0,1.2438897E1,1.6071999E0,1.0709317E1,1.7295799E0,8.182604E0,2.526713E0,8.186795E-1,9.109004E-1,2.9834456E0,5.199158E0,1.663264E0,8.63449E-1,1.188757E0,1.7946886E0,3.714037E0,1.4851213E0,8.227864E-1,9.7190225E-1,1.8198364E0,1.8942006E0,9.49138E-1,8.7069845E-1],"tree_param":{"num_deleted":"0","num_feature":"3","num_nodes":"27","size_leaf_vector":"0"}},{"base_weights":[3.9316136E-2,4.0409094E-1,-1.3030744E-1,7.6508933E-1,-2.4872571E-1,-2.7055E-1,1.5084942E-1,-1.3119423E-1,-5.661291E-1,3.5239986E-1,-1.726276E-1,-3.1202608E-1,9.511914E-2,9.468112E-2,-4.8367023E-1,2.190691E-1,-1.14791535E-1,-5.792245E-1,-1.4184365E-1],"categories":[],"categories_nodes":[],"categories_segments":[],"categories_sizes":[],"default_left":[1,1,1,0,0,1,1,1,0,0,0,1,1,0,1,0,0,0,0],"id":22,"left_children":[1,3,5,-1,-1,7,9,11,-1,-1,-1,13,15,-1,17,-1,-1,-1,-1],"loss_changes":[1.1381614E0,1.5600781E0,5.428097E-1,0E0,0E0,2.90358E-1,3.7893176E-1,3.2914957E-1,0E0,0E0,0E0,3.4605223E-1,1.2964901E-1,0E0,2.1981657E-2,0E0,0E0,0E0,0E0],"parents":[2147483647,0,0,1,1,2,2,5,5,6,6,7,7,11,11,12,12,14,14],"right_children":[2,4,6,-1,-1,8,10,12,-1,-1,-1,14,16,-1,18,-1,-1,-1,-1],"split_conditions":[5.95E-1,5.95E1,5.4E1,2.295268E-1,-7.461771E-2,1.05E0,1.1500001E0,7.05E-1,-1.6983873E-1,1.0571996E-1,-5.178828E-2,2.75E1,3.05E1,2.8404338E-2,4.05E1,6.572073E-2,-3.4437463E-2,-1.7376736E-1,-4.2553097E-2],"split_indices":[2,1,1,0,0,2,2,2,0,0,0,1,1,0,1,0,0,0,0],"split_type":[0,0,0,0,0,0,0,0,0,0,0,0,0,0,0,0,0,0,0],"sum_hessian":[1.654369E1,4.812388E0,1.1731302E1,2.9880543E0,1.8243337E0,7.8522716E0,3.879031E0,6.31759E0,1.5346811E0,2.3348389E0,1.544192E0,3.301138E0,3.0164523E0,1.112791E0,2.188347E0,1.8691248E0,1.1473277E0,1.1674887E0,1.0208583E0],"tree_param":{"num_deleted":"0","num_feature":"3","num_nodes":"19","size_leaf_vector":"0"}},{"base_weights":[2.694439E-2,3.5478505E-1,-1.1288672E-1,7.1741724E-1,-1.9594987E-1,-3.6048138E-1,7.858959E-3,-4.2691958E-1,1.7972869E-1,1.1395016E-1,-2.0920984E-1,-1.2773475E-1,3.0974108E-1,2.1199813E-2,-3.8678125E-1,1.5400887E-1,-2.7521932E-1,5.542753E-1,4.0412795E-2,-1.3175897E-1,1.9996181E-1],"categories":[],"categories_nodes":[],"categories_segments":[],"categories_sizes":[],"default_left":[1,1,1,0,1,0,1,0,0,1,1,1,1,0,0,0,0,0,1,0,0],"id":23,"left_children":[1,3,5,-1,7,-1,9,-1,-1,11,13,15,17,-1,-1,-1,-1,-1,19,-1,-1],"loss_changes":[8.118283E-1,1.1940887E0,3.7833843E-1,0E0,3.2661295E-1,0E0,2.4081121E-1,0E0,0E0,3.6966532E-1,1.4917642E-1,2.015373E-1,2.5064743E-1,0E0,0E0,0E0,0E0,0E0,1.1017269E-1,0E0,0E0],"parents":[2147483647,0,0,1,1,2,2,4,4,6,6,9,9,10,10,11,11,12,12,18,18],"right_children":[2,4,6,-1,8,-1,10,-1,-1,12,14,16,18,-1,-1,-1,-1,-1,20,-1,-1],"split_conditions":[5.95E-1,5.95E1,2.85E1,2.1522518E-1,7.7E1,-1.0814442E-1,1.1500001E0,-1.2807588E-1,5.3918608E-2,7.05E-1,6.5E1,3.95E1,8.7E-1,6.359944E-3,-1.1603438E-1,4.620266E-2,-8.25658E-2,1.662826E-1,3.95E1,-3.9527692E-2,5.9988547E-2],"split_indices":[2,1,1,0,1,0,2,0,0,2,1,1,2,0,0,0,0,0,1,0,0],"split_type":[0,0,0,0,0,0,0,0,0,0,0,0,0,0,0,0,0,0,0,0,0],"sum_hessian":[1.5835487E1,4.2750916E0,1.1560395E1,2.3952692E0,1.8798227E0,3.1387606E0,8.421636E0,1.0796504E0,8.0017227E-1,5.975965E0,2.4456701E0,2.8300896E0,3.1458755E0,1.4477453E0,9.979248E-1,9.5723027E-1,1.8728594E0,1.0943127E0,2.0515628E0,1.0705235E0,9.810394E-1],"tree_param":{"num_deleted":"0","num_feature":"3","num_nodes":"21","size_leaf_vector":"0"}},{"base_weights":[2.8679006E-2,-2.4319699E-2,3.4446007E-1,4.8896316E-2,-3.017985E-1,-4.641392E-2,2.8373286E-1,-4.3942797E-1,1.1889156E-2,-1.328319E-1,1.5738285E-1,4.8368928E-1,-1.747583E-2,8.741513E-2,-4.40173E-1,-1.2831302E-1,4.8005643E-1,3.758779E-1,-3.4159267E-1,-6.7599046E-1,-7.7413365E-2,4.7682637E-1,1.2597978E-1],"categories":[],"categories_nodes":[],"categories_segments":[],"categories_sizes":[],"default_left":[0,0,0,0,0,1,1,0,0,1,0,0,0,0,1,0,0,1,0,0,0,0,0],"id":24,"left_children":[1,3,-1,5,7,9,11,-1,-1,13,15,-1,-1,17,19,-1,-1,21,-1,-1,-1,-1,-1],"loss_changes":[2.8352946E-1,3.1974E-1,0E0,2.9828626E-1,1.465525E-1,1.9562107E-1,2.3840979E-1,0E0,0E0,5.4674846E-1,3.761132E-1,0E0,0E0,7.729541E-1,2.2999102E-1,0E0,0E0,3.050536E-2,0E0,0E0,0E0,0E0,0E0],"parents":[2147483647,0,0,1,1,3,3,4,4,5,5,6,6,9,9,10,10,13,13,14,14,17,17],"right_children":[2,4,-1,6,8,10,12,-1,-1,14,16,-1,-1,18,20,-1,-1,22,-1,-1,-1,-1,-1],"split_conditions":[8.35E0,8.05E0,1.03338026E-1,7.6499996E0,8.25E0,5.95E1,5.95E1,-1.318284E-1,3.5667468E-3,3.45E1,7.3500004E0,1.4510679E-1,-5.242749E-3,7.3500004E0,4.05E1,-3.849391E-2,1.4401694E-1,2.75E1,-1.02477804E-1,-2.0279714E-1,-2.3224011E-2,1.4304791E-1,3.7793934E-2],"split_indices":[0,0,0,0,0,1,1,0,0,1,0,0,0,0,1,0,0,1,0,0,0,0,0],"split_type":[0,0,0,0,0,0,0,0,0,0,0,0,0,0,0,0,0,0,0,0,0,0,0],"sum_hessian":[1.5440755E1,1.4012047E1,1.4287082E0,1.1738493E1,2.2735546E0,8.920425E0,2.8180673E0,1.301625E0,9.719295E-1,6.5086927E0,2.4117322E0,1.3295935E0,1.4884739E0,4.2084246E0,2.3002684E0,1.5986385E0,8.130938E-1,2.5904572E0,1.6179671E0,8.707546E-1,1.4295139E0,1.1983075E0,1.3921497E0],"tree_param":{"num_deleted":"0","num_feature":"3","num_nodes":"23","size_leaf_vector":"0"}},{"base_weights":[2.7415182E-2,1.3496129E-1,-3.2712892E-1,3.2403314E-1,1.970033E-2,-6.3878995E-1,-1.7037025E-2,6.7324746E-1,-1.4500797E-1,-2.0738386E-1,2.2831103E-1,2.2656965E-1,-2.3329431E-1,1.0078955E-1,-3.2383648E-1,3.3595333E-1,7.659232E-2,-4.5006087E-1,-9.235344E-2,-4.50671E-2,5.173977E-1,3.713548E-1,-2.0233274E-1],"categories":[],"categories_nodes":[],"categories_segments":[],"categories_sizes":[],"default_left":[1,1,1,1,1,0,1,0,0,1,1,0,0,0,1,1,1,0,0,0,0,0,0],"id":25,"left_children":[1,3,5,7,9,-1,11,-1,-1,13,15,-1,-1,-1,17,19,21,-1,-1,-1,-1,-1,-1],"loss_changes":[6.574585E-1,2.7799124E-1,3.7913206E-1,8.9652604E-1,4.8183292E-1,0E0,2.1355224E-1,0E0,0E0,2.090427E-1,6.0110867E-2,0E0,0E0,0E0,6.960565E-2,2.1547326E-1,3.6098993E-1,0E0,0E0,0E0,0E0,0E0,0E0],"parents":[2147483647,0,0,1,1,2,2,3,3,4,4,6,6,9,9,10,10,14,14,15,15,16,16],"right_children":[2,4,6,8,10,-1,12,-1,-1,14,16,-1,-1,-1,18,20,22,-1,-1,-1,-1,-1,-1],"split_conditions":[1.05E0,5.95E-1,3.8E1,5.95E1,7.05E-1,-1.91637E-1,6.5E1,2.0197424E-1,-4.350239E-2,2.75E1,8.7E-1,6.79709E-2,-6.9988295E-2,3.0236864E-2,4.05E1,2.95E1,3.05E1,-1.3501827E-1,-2.7706033E-2,-1.3520131E-2,1.5521932E-1,1.1140644E-1,-6.0699824E-2],"split_indices":[2,2,1,1,2,0,1,0,0,1,2,0,0,0,1,1,1,0,0,0,0,0,0],"split_type":[0,0,0,0,0,0,0,0,0,0,0,0,0,0,0,0,0,0,0,0,0,0,0],"sum_hessian":[1.5084744E1,1.204914E1,3.0356038E0,3.8774111E0,8.171729E0,9.8530793E-1,2.0502958E0,1.9730499E0,1.9043611E0,3.9154396E0,4.2562895E0,9.4175476E-1,1.1085411E0,1.1106863E0,2.8047533E0,1.7794663E0,2.4768233E0,1.2039868E0,1.6007665E0,8.16498E-1,9.629683E-1,1.0431085E0,1.4337149E0],"tree_param":{"num_deleted":"0","num_feature":"3","num_nodes":"23","size_leaf_vector":"0"}},{"base_weights":[2.4587626E-2,1.19341396E-1,-2.8862658E-1,4.3101165E-2,3.993182E-1,-3.8714543E-1,-1.13823265E-1,1.3457976E-1,-2.946857E-1,1.6590653E-1,-3.4508926E-1,-2.105063E-4,5.7103014E-1,2.3022966E-1,-1.246205E-1,-5.414661E-2,4.744005E-1,-3.063779E-1,9.688426E-2,-3.548683E-1,-6.924063E-2,1.4407541E-1,7.8965025E-3],"categories":[],"categories_nodes":[],"categories_segments":[],"categories_sizes":[],"default_left":[1,0,1,0,0,0,1,0,0,0,0,1,0,1,1,0,0,1,1,0,0,0,0],"id":26,"left_children":[1,3,5,7,-1,-1,9,11,-1,-1,-1,13,-1,15,17,-1,-1,19,21,-1,-1,-1,-1],"loss_changes":[4.960464E-1,2.5277907E-1,2.318278E-2,3.8149083E-1,0E0,0E0,2.3994169E-1,5.526129E-1,0E0,0E0,0E0,2.6306313E-1,0E0,2.4908926E-1,2.6954153E-1,0E0,0E0,1.582104E-2,1.3329346E-2,0E0,0E0,0E0,0E0],"parents":[2147483647,0,0,1,1,2,2,3,3,6,6,7,7,11,11,13,13,14,14,17,17,18,18],"right_children":[2,4,6,8,-1,-1,10,12,-1,-1,-1,14,-1,16,18,-1,-1,20,22,-1,-1,-1,-1],"split_conditions":[1.05E0,8.25E0,1.3499999E0,7.95E0,1.19795464E-1,-1.1614364E-1,1.6600001E0,7.6499996E0,-8.840571E-2,4.977196E-2,-1.0352678E-1,5.95E-1,1.7130905E-1,4.05E-1,7.05E-1,-1.6243983E-2,1.4232016E-1,6.05E-1,8.7E-1,-1.0646049E-1,-2.0772189E-2,4.3222625E-2,2.3689508E-3],"split_indices":[2,0,2,0,0,0,2,0,0,0,0,2,0,2,2,0,0,2,2,0,0,0,0],"split_type":[0,0,0,0,0,0,0,0,0,0,0,0,0,0,0,0,0,0,0,0,0,0,0],"sum_hessian":[1.4553534E1,1.1648577E1,2.9049568E0,1.0062431E1,1.5861458E0,1.080973E0,1.8239837E0,8.39146E0,1.6709707E0,9.5340294E-1,8.705808E-1,7.1750774E0,1.2163829E0,2.217363E0,4.9577146E0,1.3838683E0,8.334947E-1,2.5127182E0,2.444996E0,1.6739558E0,8.3876246E-1,1.1931882E0,1.2518079E0],"tree_param":{"num_deleted":"0","num_feature":"3","num_nodes":"23","size_leaf_vector":"0"}},{"base_weights":[2.5121821E-2,1.0880527E-1,-2.489918E-1,2.5839308E-1,2.3821237E-2,-5.5881757E-1,2.2775928E-2,6.182668E-1,-1.644468E-1,-1.429E-1,1.8423793E-1,2.2301564E-1,-1.7124881E-1,1.1867945E-1,-2.5223255E-1,4.444581E-2,3.263679E-1,-3.5605767E-1,-6.3422725E-2,1.9385348E-1,-1.8992095E-1],"categories":[],"categories_nodes":[],"categories_segments":[],"categories_sizes":[],"default_left":[1,1,1,1,1,0,1,0,0,1,1,0,0,0,1,1,0,0,0,0,0],"id":27,"left_children":[1,3,5,7,9,-1,11,-1,-1,13,15,-1,-1,-1,17,19,-1,-1,-1,-1,-1],"loss_changes":[3.7559265E-1,1.5065722E-1,3.3752623E-1,7.662592E-1,2.661701E-1,0E0,1.5535814E-1,0E0,0E0,1.7180562E-1,8.497922E-2,0E0,0E0,0E0,5.227059E-2,1.657457E-1,0E0,0E0,0E0,0E0,0E0],"parents":[2147483647,0,0,1,1,2,2,3,3,4,4,6,6,9,9,10,10,14,14,15,15],"right_children":[2,4,6,8,10,-1,12,-1,-1,14,16,-1,-1,-1,18,20,-1,-1,-1,-1,-1],"split_conditions":[1.05E0,5.95E-1,3.8E1,5.95E1,7.05E-1,-1.6764528E-1,6.5E1,1.8548006E-1,-4.933404E-2,2.75E1,3.95E1,6.6904694E-2,-5.1374644E-2,3.5603836E-2,4.05E1,3.05E1,9.791038E-2,-1.06817305E-1,-1.9026818E-2,5.8156047E-2,-5.6976285E-2],"split_indices":[2,2,1,1,2,0,1,0,0,1,1,0,0,0,1,1,0,0,0,0,0],"split_type":[0,0,0,0,0,0,0,0,0,0,0,0,0,0,0,0,0,0,0,0,0],"sum_hessian":[1.4192661E1,1.1335224E1,2.8574367E0,3.367429E0,7.9677954E0,8.41669E-1,2.0157678E0,1.5694839E0,1.7979453E0,3.960666E0,4.007129E0,9.1846454E-1,1.0973032E0,1.1422731E0,2.818393E0,2.6819785E0,1.3251507E0,1.2469201E0,1.5714729E0,1.7434196E0,9.385589E-1],"tree_param":{"num_deleted":"0","num_feature":"3","num_nodes":"21","size_leaf_vector":"0"}},{"base_weights":[1.9657593E-2,-3.305855E-2,3.7076518E-1,-9.715932E-2,3.462696E-1,-7.665591E-4,-2.6731998E-1,-1.6091852E-1,1.2035206E-1,-8.161795E-2,-4.853458E-1,2.0590107E-1,-4.529057E-1,-1.936081E-1,3.6251122E-1,-2.7152142E-1,1.9706647E-1,1.3855892E-1,-3.9308733E-1,5.9578866E-1,-5.235869E-2],"categories":[],"categories_nodes":[],"categories_segments":[],"categories_sizes":[],"default_left":[1,0,0,1,0,1,0,0,0,0,0,0,0,1,0,0,0,0,0,0,0],"id":28,"left_children":[1,3,-1,5,-1,7,9,11,13,15,-1,-1,-1,17,19,-1,-1,-1,-1,-1,-1],"loss_changes":[2.855479E-1,3.681215E-1,0E0,2.0561537E-1,0E0,1.9420272E-1,1.4399606E-1,5.5479306E-1,5.038671E-1,2.4673863E-1,0E0,0E0,0E0,2.6224047E-1,3.7655208E-1,0E0,0E0,0E0,0E0,0E0,0E0],"parents":[2147483647,0,0,1,1,3,3,5,5,6,6,7,7,8,8,9,9,13,13,14,14],"right_children":[2,4,-1,6,-1,8,10,12,14,16,-1,-1,-1,18,20,-1,-1,-1,-1,-1,-1],"split_conditions":[1.1E2,8.35E0,1.1122956E-1,5.55E1,1.0388089E-1,2.85E1,7.95E0,7.3500004E0,7.45E0,7.3500004E0,-1.4560375E-1,6.1770324E-2,-1.3587172E-1,3.6E1,8.05E0,-8.145643E-2,5.9119944E-2,4.156768E-2,-1.179262E-1,1.787366E-1,-1.5707608E-2],"split_indices":[1,0,0,1,0,1,0,0,0,0,0,0,0,1,0,0,0,0,0,0,0],"split_type":[0,0,0,0,0,0,0,0,0,0,0,0,0,0,0,0,0,0,0,0,0],"sum_hessian":[1.3765272E1,1.2755914E1,1.0093588E0,1.154829E1,1.2076231E0,8.013372E0,3.5349176E0,3.3091578E0,4.704215E0,2.65116E0,8.8375765E-1,1.5973088E0,1.7118491E0,2.1357284E0,2.5684865E0,1.5920173E0,1.0591427E0,9.1593564E-1,1.2197927E0,1.3649197E0,1.2035669E0],"tree_param":{"num_deleted":"0","num_feature":"3","num_nodes":"21","size_leaf_vector":"0"}},{"base_weights":[2.1004103E-2,1.0317697E-1,-2.5295764E-1,2.6048782E-1,1.5193677E-2,-3.9207304E-1,-3.0176468E-2,5.830292E-1,-1.03744425E-1,-1.5249383E-1,1.7615603E-1,1.0469219E-1,-2.5841534E-1,2.9676503E-1,2.3241967E-2,-3.841778E-1,-8.731591E-2,-4.3801293E-2,4.7374815E-1,3.126877E-1,-2.2067228E-1],"categories":[],"categories_nodes":[],"categories_segments":[],"categories_sizes":[],"default_left":[1,1,1,1,1,0,0,0,0,1,1,0,1,1,1,0,0,0,0,0,0],"id":29,"left_children":[1,3,5,7,9,-1,-1,-1,-1,11,13,-1,15,17,19,-1,-1,-1,-1,-1,-1],"loss_changes":[3.5029203E-1,1.592004E-1,1.0012744E-1,5.4994655E-1,2.5958058E-1,0E0,0E0,0E0,0E0,1.5668976E-1,8.279337E-2,0E0,4.51871E-2,1.795022E-1,2.9699522E-1,0E0,0E0,0E0,0E0,0E0,0E0],"parents":[2147483647,0,0,1,1,2,2,3,3,4,4,9,9,10,10,12,12,13,13,14,14],"right_children":[2,4,6,8,10,-1,-1,-1,-1,12,14,-1,16,18,20,-1,-1,-1,-1,-1,-1],"split_conditions":[1.05E0,5.95E-1,5.45E1,5.95E1,7.05E-1,-1.1762191E-1,-9.052941E-3,1.7490877E-1,-3.1123329E-2,2.75E1,8.7E-1,3.1407658E-2,3.65E1,3.15E1,3.05E1,-1.15253344E-1,-2.6194774E-2,-1.3140389E-2,1.4212444E-1,9.380631E-2,-6.620169E-2],"split_indices":[2,2,1,1,2,0,0,0,0,1,2,0,1,1,1,0,0,0,0,0,0],"split_type":[0,0,0,0,0,0,0,0,0,0,0,0,0,0,0,0,0,0,0,0,0],"sum_hessian":[1.3400741E1,1.0788266E1,2.612474E0,3.1663313E0,7.621935E0,1.1404313E0,1.4720427E0,1.3606857E0,1.8056457E0,3.7587514E0,3.8631837E0,1.0998449E0,2.6589062E0,1.6338079E0,2.2293758E0,8.1471896E-1,1.8441874E0,8.160347E-1,8.177733E-1,8.9058626E-1,1.3387895E0],"tree_param":{"num_deleted":"0","num_feature":"3","num_nodes":"21","size_leaf_vector":"0"}},{"base_weights":[2.1740347E-2,9.329757E-2,-2.1537335E-1,2.296434E-2,3.5059652E-1,-8.491384E-2,-2.9573545E-1,1.02992E-1,-2.4900208E-1,-2.847303E-1,1.7320898E-1,-1.8216617E-2,5.1251525E-1,2.4823125E-1,-1.0079958E-1,-1.7255118E-1,1.6491833E-1,5.345931E-2,-2.6698303E-1,-3.1153846E-1,-4.0427446E-2],"categories":[],"categories_nodes":[],"categories_segments":[],"categories_sizes":[],"default_left":[1,0,1,0,0,1,0,0,0,0,0,0,0,0,1,1,0,0,0,0,0],"id":30,"left_children":[1,3,5,7,-1,9,-1,11,-1,-1,-1,13,-1,-1,15,17,-1,-1,19,-1,-1],"loss_changes":[2.5931203E-1,2.0056999E-1,1.2323245E-2,2.4598122E-1,0E0,1.9187081E-1,0E0,4.327097E-1,0E0,0E0,0E0,1.9108677E-1,0E0,0E0,1.5186048E-1,1.334726E-1,0E0,0E0,2.8852671E-2,0E0,0E0],"parents":[2147483647,0,0,1,1,2,2,3,3,5,5,7,7,11,11,14,14,15,15,18,18],"right_children":[2,4,6,8,-1,10,-1,12,-1,-1,-1,14,-1,-1,16,18,-1,-1,20,-1,-1],"split_conditions":[1.05E0,8.25E0,1.6600001E0,7.95E0,1.0517896E-1,1.3499999E0,-8.8720635E-2,7.6499996E0,-7.470063E-2,-8.541909E-2,5.1962696E-2,7.05E0,1.5375458E-1,7.446938E-2,8.5E-1,5.95E-1,4.9475502E-2,1.6037794E-2,7.45E0,-9.346154E-2,-1.2128235E-2],"split_indices":[2,0,2,0,0,2,0,0,0,0,0,0,0,0,2,2,0,0,0,0,0],"split_type":[0,0,0,0,0,0,0,0,0,0,0,0,0,0,0,0,0,0,0,0,0],"sum_hessian":[1.3098864E1,1.0528157E1,2.570706E0,9.123485E0,1.404673E0,1.7638766E0,8.0682945E-1,7.5292625E0,1.594222E0,9.3612695E-1,8.277496E-1,6.5470247E0,9.822378E-1,1.0744737E0,5.472551E0,4.5850706E0,8.874803E-1,1.4790471E0,3.1060236E0,2.2821064E0,8.2391715E-1],"tree_param":{"num_deleted":"0","num_feature":"3","num_nodes":"21","size_leaf_vector":"0"}},{"base_weights":[2.4134168E-2,-2.4104366E-2,3.3731467E-1,5.2540667E-2,-2.9328603E-1,1.15950316E-1,-2.2672957E-1,3.9233732E-1,2.9300202E-3,4.730029E-1,1.0374076E-1,-1.3783392E-1,9.917591E-2,1.7004217E-1,-3.7145367E-1,2.2451116E-1,-1.2253263E-1,-1.4034062E-2,4.7080532E-1,5.9058677E-2,-8.5336715E-2],"categories":[],"categories_nodes":[],"categories_segments":[],"categories_sizes":[],"default_left":[1,1,0,1,0,1,0,1,1,0,0,1,1,0,0,1,0,1,0,0,0],"id":31,"left_children":[1,3,-1,5,-1,7,-1,9,11,-1,-1,13,15,-1,-1,17,-1,19,-1,-1,-1],"loss_changes":[2.1810816E-1,2.8314808E-1,0E0,2.2018193E-1,0E0,2.9825303E-1,0E0,1.5516102E-2,1.1948523E-1,0E0,0E0,3.2138696E-1,1.7257105E-1,0E0,0E0,2.2328915E-1,0E0,1.9864859E-2,0E0,0E0,0E0],"parents":[2147483647,0,0,1,1,3,3,5,5,7,7,8,8,11,11,12,12,15,15,17,17],"right_children":[2,4,-1,6,-1,8,-1,10,12,-1,-1,14,16,-1,-1,18,-1,20,-1,-1,-1],"split_conditions":[1.1E2,1.05E0,1.01194404E-1,7.3E1,-8.798581E-2,5.95E-1,-6.8018876E-2,5.15E1,2.85E1,1.4190088E-1,3.1122228E-2,2.3E1,8.7E-1,5.1012654E-2,-1.11436106E-1,6.05E-1,-3.675979E-2,4.25E1,1.412416E-1,1.7717604E-2,-2.5601016E-2],"split_indices":[1,2,0,1,0,2,0,1,1,0,0,1,2,0,0,2,0,1,0,0,0],"split_type":[0,0,0,0,0,0,0,0,0,0,0,0,0,0,0,0,0,0,0,0,0],"sum_hessian":[1.2899006E1,1.1977215E1,9.217916E-1,9.949167E0,2.0280476E0,8.5847645E0,1.3644025E0,1.7743263E0,6.810438E0,8.87332E-1,8.869943E-1,2.59014E0,4.2202983E0,1.2348856E0,1.3552544E0,2.688057E0,1.5322412E0,1.8445549E0,8.4350216E-1,9.9563867E-1,8.489162E-1],"tree_param":{"num_deleted":"0","num_feature":"3","num_nodes":"21","size_leaf_vector":"0"}},{"base_weights":[3.040913E-2,-1.411233E-2,2.8700814E-1,5.1299185E-2,-2.58546E-1,1.3075596E-1,-1.414069E-1,4.9905533E-1,1.0979606E-2,-4.965763E-1,1.9299412E-1,-1.2212425E-1,1.508065E-1,1.3032983E-1,-2.6053673E-1,4.3515895E-2,2.3070422E-1,-3.340388E-1,-8.331465E-2,-3.3375078E-3,6.47983E-2],"categories":[],"categories_nodes":[],"categories_segments":[],"categories_sizes":[],"default_left":[1,1,0,1,0,1,1,0,1,0,0,1,1,0,1,1,0,0,0,0,0],"id":32,"left_children":[1,3,-1,5,-1,7,9,-1,11,-1,-1,13,15,-1,17,19,-1,-1,-1,-1,-1],"loss_changes":[1.6026406E-1,2.1480772E-1,0E0,1.8353094E-1,0E0,3.5411054E-1,5.2663815E-1,0E0,1.5192758E-1,0E0,0E0,1.816823E-1,2.3785837E-2,0E0,1.20821595E-2,3.1246538E-3,0E0,0E0,0E0,0E0,0E0],"parents":[2147483647,0,0,1,1,3,3,5,5,6,6,8,8,11,11,12,12,14,14,15,15],"right_children":[2,4,-1,6,-1,8,10,-1,12,-1,-1,14,16,-1,18,20,-1,-1,-1,-1,-1],"split_conditions":[8.45E1,1.05E0,8.610244E-2,5.55E1,-7.75638E-2,5.95E-1,4.05E-1,1.497166E-1,7.05E-1,-1.489729E-1,5.789824E-2,2.75E1,3.15E1,3.9098952E-2,3.65E1,8.5E-1,6.921127E-2,-1.0021164E-1,-2.4994396E-2,-1.0012524E-3,1.9439492E-2],"split_indices":[1,2,0,1,0,2,2,0,2,0,0,1,1,0,1,2,0,0,0,0,0],"split_type":[0,0,0,0,0,0,0,0,0,0,0,0,0,0,0,0,0,0,0,0,0],"sum_hessian":[1.2673976E1,1.1605376E1,1.0685997E0,9.778687E0,1.8266889E0,7.1514626E0,2.6272242E0,9.779163E-1,6.1735463E0,1.0388658E0,1.5883585E0,3.2276702E0,2.9458761E0,1.1636515E0,2.0640187E0,1.9166923E0,1.029184E0,8.3347756E-1,1.2305411E0,8.620537E-1,1.0546386E0],"tree_param":{"num_deleted":"0","num_feature":"3","num_nodes":"21","size_leaf_vector":"0"}},{"base_weights":[2.8187102E-2,-2.9399019E-2,3.5314333E-1,4.6119254E-2,-2.986635E-1,-7.410253E-2,2.545402E-1,4.771671E-2,-4.4707695E-1,-5.732921E-2,4.2656985E-1,-9.403188E-2,1.9240488E-1,2.0562737E-1,-3.7148097E-1,-1.5709008E-1,5.268816E-1],"categories":[],"categories_nodes":[],"categories_segments":[],"categories_sizes":[],"default_left":[0,0,0,1,0,1,0,1,0,0,0,0,0,0,0,0,0],"id":33,"left_children":[1,3,-1,5,-1,7,9,11,-1,-1,-1,13,15,-1,-1,-1,-1],"loss_changes":[2.6106042E-1,2.6393902E-1,0E0,2.8130993E-1,0E0,3.583317E-1,2.4211925E-1,1.5129106E-1,0E0,0E0,0E0,4.04983E-1,4.96847E-1,0E0,0E0,0E0,0E0],"parents":[2147483647,0,0,1,1,3,3,5,5,6,6,7,7,11,11,12,12],"right_children":[2,4,-1,6,-1,8,10,12,-1,-1,-1,14,16,-1,-1,-1,-1],"split_conditions":[8.35E0,8.05E0,1.05943E-1,6.15E1,-8.959905E-2,5.25E1,7.3500004E0,2.85E1,-1.3412309E-1,-1.7198764E-2,1.2797096E-1,7.3500004E0,7.45E0,6.168821E-2,-1.11444294E-1,-4.7127027E-2,1.5806448E-1],"split_indices":[0,0,0,1,0,1,0,1,0,0,0,0,0,0,0,0,0],"split_type":[0,0,0,0,0,0,0,0,0,0,0,0,0,0,0,0,0],"sum_hessian":[1.239597E1,1.1302552E1,1.0934178E0,9.474143E0,1.8284093E0,6.417085E0,3.057058E0,5.4945455E0,9.225394E-1,1.3238401E0,1.7332178E0,2.9523168E0,2.5422287E0,1.543799E0,1.4085177E0,1.5025518E0,1.0396769E0],"tree_param":{"num_deleted":"0","num_feature":"3","num_nodes":"17","size_leaf_vector":"0"}},{"base_weights":[2.6994832E-2,8.670053E-2,-1.7332691E-1,2.6148754E-1,2.9856956E-2,-2.4629752E-1,-3.7368786E-2,-3.1144953E-1,1.3093157E-1,-1.7759454E-1,2.2640309E-1,3.3743963E-1,-6.69841E-2,4.7536993E-1,1.8898696E-1,1.2092594E-2,3.2583183E-1,5.8411848E-2,-4.3562993E-2],"categories":[],"categories_nodes":[],"categories_segments":[],"categories_sizes":[],"default_left":[1,1,1,0,1,0,0,0,1,0,1,1,0,0,1,1,0,0,0],"id":34,"left_children":[1,3,5,-1,7,-1,-1,-1,9,-1,11,13,-1,-1,15,17,-1,-1,-1],"loss_changes":[1.7117892E-1,9.874679E-2,2.3844823E-2,0E0,3.5889938E-1,0E0,0E0,0E0,2.705106E-1,0E0,2.3143876E-1,8.77744E-3,0E0,0E0,9.239218E-2,9.696537E-3,0E0,0E0,0E0],"parents":[2147483647,0,0,1,1,2,2,4,4,8,8,10,10,11,11,14,14,15,15],"right_children":[2,4,6,-1,8,-1,-1,-1,10,-1,12,14,-1,-1,16,18,-1,-1,-1],"split_conditions":[1.05E0,2.4E1,5.45E1,7.844627E-2,2.85E1,-7.388926E-2,-1.1210636E-2,-9.343486E-2,4.05E-1,-5.3278364E-2,8.7E-1,5.5E-1,-2.0095231E-2,1.4261098E-1,6.05E-1,4.25E1,9.774955E-2,1.7523555E-2,-1.3068899E-2],"split_indices":[2,1,1,0,1,0,0,0,2,0,2,2,0,0,2,1,0,0,0],"split_type":[0,0,0,0,0,0,0,0,0,0,0,0,0,0,0,0,0,0,0],"sum_hessian":[1.2055755E1,9.724554E0,2.3312001E0,1.5029726E0,8.221581E0,9.8888373E-1,1.3423165E0,1.4029043E0,6.8186774E0,1.4080935E0,5.410584E0,3.8161552E0,1.594429E0,8.366459E-1,2.979509E0,1.7743016E0,1.2052076E0,9.4134533E-1,8.3295625E-1],"tree_param":{"num_deleted":"0","num_feature":"3","num_nodes":"19","size_leaf_vector":"0"}},{"base_weights":[2.6200261E-2,-2.5281068E-2,3.1783026E-1,1.9425063E-1,-1.0177642E-1,-7.172196E-2,4.660756E-1,-4.1411985E-3,-3.6105758E-1,-1.0009559E-1,2.5832993E-1,-2.1767256E-1,2.0690143E-2,1.7801096E-1,-1.9562428E-1,5.3486846E-2,2.104408E-1],"categories":[],"categories_nodes":[],"categories_segments":[],"categories_sizes":[],"default_left":[0,1,0,1,0,0,0,0,0,1,0,0,1,1,0,0,0],"id":35,"left_children":[1,3,-1,5,7,-1,-1,9,-1,11,-1,-1,13,15,-1,-1,-1],"loss_changes":[2.0132422E-1,2.1908762E-1,0E0,2.8002393E-1,2.3793742E-1,0E0,0E0,2.2437921E-1,0E0,9.6714355E-2,0E0,0E0,1.748932E-1,4.8149377E-4,0E0,0E0,0E0],"parents":[2147483647,0,0,1,1,3,3,4,4,7,7,9,9,12,12,13,13],"right_children":[2,4,-1,6,8,-1,-1,10,-1,12,-1,-1,14,16,-1,-1,-1],"split_conditions":[8.35E0,5.95E-1,9.534908E-2,4.05E-1,8.05E0,-2.151659E-2,1.3982269E-1,7.6499996E0,-1.0831728E-1,7.05E-1,7.749898E-2,-6.530177E-2,9.5E-1,8.2E-1,-5.8687285E-2,1.6046055E-2,6.313224E-2],"split_indices":[0,2,0,2,0,0,0,0,0,2,0,0,2,2,0,0,0],"split_type":[0,0,0,0,0,0,0,0,0,0,0,0,0,0,0,0,0],"sum_hessian":[1.1874355E1,1.0868972E1,1.005384E0,2.410829E0,8.458142E0,1.5906106E0,8.202184E-1,6.8824506E0,1.5756922E0,5.4929686E0,1.389482E0,2.3769884E0,3.1159801E0,1.9064982E0,1.2094818E0,9.4132155E-1,9.6517664E-1],"tree_param":{"num_deleted":"0","num_feature":"3","num_nodes":"17","size_leaf_vector":"0"}},{"base_weights":[3.0766807E-2,-1.31320115E-2,2.796031E-1,1.7749684E-1,-7.896619E-2,3.3340987E-2,2.4292639E-1,2.0986593E-3,-2.9653326E-1,-2.1225518E-1,1.0937471E-1,2.002389E-2,-3.3614042E-1,-2.01724E-1,2.7003992E-1,3.9838153E-1,-1.2542423E-2],"categories":[],"categories_nodes":[],"categories_segments":[],"categories_sizes":[],"default_left":[0,1,0,0,0,0,0,0,0,1,1,0,0,0,1,0,0],"id":36,"left_children":[1,3,-1,5,7,-1,-1,9,-1,11,13,-1,-1,-1,15,-1,-1],"loss_changes":[1.4222065E-1,1.6130868E-1,0E0,2.322144E-2,1.6669032E-1,0E0,0E0,2.0379217E-1,0E0,9.188746E-2,3.4905002E-1,0E0,0E0,0E0,1.6145396E-1,0E0,0E0],"parents":[2147483647,0,0,1,1,3,3,4,4,7,7,9,9,10,10,14,14],"right_children":[2,4,-1,6,8,-1,-1,10,-1,12,14,-1,-1,-1,16,-1,-1],"split_conditions":[8.35E0,5.95E-1,8.388093E-2,7.3500004E0,8.05E0,1.0002296E-2,7.287792E-2,7.1499996E0,-8.895998E-2,8.7E-1,6.05E-1,6.007167E-3,-1.0084213E-1,-6.05172E-2,1.05E0,1.19514465E-1,-3.762727E-3],"split_indices":[0,2,0,0,0,0,0,0,0,2,2,0,0,0,2,0,0],"split_type":[0,0,0,0,0,0,0,0,0,0,0,0,0,0,0,0,0],"sum_hessian":[1.1683424E1,1.07365465E1,9.468775E-1,2.320682E0,8.415865E0,1.1957499E0,1.1249322E0,6.8528624E0,1.5630026E0,1.9592983E0,4.893564E0,9.7311693E-1,9.861813E-1,1.5795331E0,3.314031E0,1.997176E0,1.316855E0],"tree_param":{"num_deleted":"0","num_feature":"3","num_nodes":"17","size_leaf_vector":"0"}},{"base_weights":[2.6408816E-2,7.746925E-2,-1.6411233E-1,-1.777918E-2,2.2196202E-1,-3.5182357E-2,-2.0514418E-1,1.637572E-1,-6.873451E-2,3.0864373E-1,7.5123444E-2,-1.4649776E-1,1.558081E-1,-3.359636E-2,1.3834879E-1,2.8174283E-2,-2.0523016E-1],"categories":[],"categories_nodes":[],"categories_segments":[],"categories_sizes":[],"default_left":[1,0,1,0,1,0,0,0,1,0,1,1,0,0,0,0,0],"id":37,"left_children":[1,3,5,7,9,-1,-1,-1,11,-1,13,15,-1,-1,-1,-1,-1],"loss_changes":[1.3338275E-1,1.479287E-1,8.348592E-3,7.814602E-2,3.0661508E-2,0E0,0E0,0E0,1.3371581E-1,0E0,2.4527706E-2,5.946164E-2,0E0,0E0,0E0,0E0,0E0],"parents":[2147483647,0,0,1,1,2,2,3,3,4,4,8,8,10,10,11,11],"right_children":[2,4,6,8,10,-1,-1,-1,12,-1,14,16,-1,-1,-1,-1,-1],"split_conditions":[1.1500001E0,7.6499996E0,1.45E0,7.05E0,8.05E0,-1.0554708E-2,-6.1543256E-2,4.9127165E-2,8.5E-1,9.259312E-2,7.5E-1,5.95E-1,4.674243E-2,-1.0078908E-2,4.1504636E-2,8.452285E-3,-6.156905E-2],"split_indices":[2,0,2,0,0,0,0,0,2,0,2,2,0,0,0,0,0],"split_type":[0,0,0,0,0,0,0,0,0,0,0,0,0,0,0,0,0],"sum_hessian":[1.1404188E1,9.461777E0,1.9424118E0,6.2311854E0,3.2305908E0,9.17353E-1,1.0250589E0,8.805055E-1,5.3506804E0,1.3385143E0,1.8920765E0,4.23247E0,1.1182101E0,8.680452E-1,1.0240313E0,1.195955E0,3.036515E0],"tree_param":{"num_deleted":"0","num_feature":"3","num_nodes":"17","size_leaf_vector":"0"}},{"base_weights":[2.6946198E-2,7.542318E-2,-1.3424785E-1,1.443528E-1,-9.6652724E-2,-2.1380341E-1,-7.6171965E-3,-2.3606919E-2,2.4829687E-1,-4.1818938E-1,1.9723159E-1,2.2362983E-1,-2.533566E-1,3.1430694E-1,1.06387675E-1,-8.596951E-2,2.1447197E-1],"categories":[],"categories_nodes":[],"categories_segments":[],"categories_sizes":[],"default_left":[1,1,1,1,1,0,0,1,1,0,0,0,0,0,1,0,0],"id":38,"left_children":[1,3,5,7,9,-1,-1,11,13,-1,-1,-1,-1,-1,15,-1,-1],"loss_changes":[1.0674425E-1,1.3429582E-1,3.0794736E-2,1.3933533E-1,4.1328865E-1,0E0,0E0,2.7454257E-1,1.1613578E-2,0E0,0E0,0E0,0E0,0E0,8.1612304E-2,0E0,0E0],"parents":[2147483647,0,0,1,1,2,2,3,3,4,4,7,7,8,8,14,14],"right_children":[2,4,6,8,10,-1,-1,12,14,-1,-1,-1,-1,-1,16,-1,-1],"split_conditions":[1.05E0,5.55E1,5.45E1,2.85E1,4.05E-1,-6.414103E-2,-2.285159E-3,2.4E1,3.85E1,-1.2545682E-1,5.916948E-2,6.7088954E-2,-7.6006986E-2,9.429209E-2,4.45E1,-2.5790853E-2,6.434159E-2],"split_indices":[2,1,1,1,2,0,0,1,1,0,0,0,0,0,1,0,0],"split_type":[0,0,0,0,0,0,0,0,0,0,0,0,0,0,0,0,0],"sum_hessian":[1.1364521E1,9.146061E0,2.2184598E0,6.6452413E0,2.50082E0,9.3969566E-1,1.2787642E0,2.8358214E0,3.8094199E0,9.922423E-1,1.5085777E0,1.3787581E0,1.4570633E0,1.7708507E0,2.0385692E0,8.069862E-1,1.2315831E0],"tree_param":{"num_deleted":"0","num_feature":"3","num_nodes":"17","size_leaf_vector":"0"}},{"base_weights":[1.9423459E-2,-1.6795479E-2,2.3439516E-1,6.550169E-2,-1.9054173E-1,-5.7465035E-2,2.2782995E-1,-3.770355E-1,-2.077424E-3,4.1136976E-2,-2.7038804E-1,8.7665275E-2,3.379365E-1,2.5978655E-1,-2.6714176E-1,-1.0798182E-1,1.9655475E-1,-2.8268592E-2,1.4898472E-1,1.0471534E-1,-2.820227E-1],"categories":[],"categories_nodes":[],"categories_segments":[],"categories_sizes":[],"default_left":[1,1,0,1,1,1,1,0,1,1,0,1,0,0,0,1,0,0,0,0,0],"id":39,"left_children":[1,3,-1,5,7,9,11,-1,13,15,-1,17,-1,-1,-1,19,-1,-1,-1,-1,-1],"loss_changes":[9.864809E-2,1.7467843E-1,0E0,1.8159504E-1,1.3635536E-1,1.2872899E-1,2.963595E-2,0E0,2.7389744E-1,1.3007244E-1,0E0,2.5820373E-2,0E0,0E0,0E0,1.4215264E-1,0E0,0E0,0E0,0E0,0E0],"parents":[2147483647,0,0,1,1,3,3,4,4,5,5,6,6,8,8,9,9,11,11,15,15],"right_children":[2,4,-1,6,8,10,12,-1,14,16,-1,18,-1,-1,-1,20,-1,-1,-1,-1,-1],"split_conditions":[8.45E1,5.55E1,7.031855E-2,3.55E1,4.05E-1,3.05E1,9.5E-1,-1.13110654E-1,9.1999996E-1,2.55E1,-8.1116416E-2,4.05E1,1.0138095E-1,7.7935964E-2,-8.014253E-2,7.95E-1,5.8966428E-2,-8.480578E-3,4.4695415E-2,3.1414602E-2,-8.460682E-2],"split_indices":[1,1,0,1,2,1,2,0,2,1,0,1,0,0,0,2,0,0,0,0,0],"split_type":[0,0,0,0,0,0,0,0,0,0,0,0,0,0,0,0,0,0,0,0,0],"sum_hessian":[1.1164237E1,1.0343424E1,8.208131E-1,7.4416113E0,2.901812E0,4.601718E0,2.8398936E0,9.556184E-1,1.9461938E0,3.6966457E0,9.0507215E-1,2.039638E0,8.0025554E-1,9.8902327E-1,9.5717055E-1,2.0423176E0,1.6543281E0,8.920584E-1,1.1475796E0,1.0983465E0,9.439712E-1],"tree_param":{"num_deleted":"0","num_feature":"3","num_nodes":"21","size_leaf_vector":"0"}},{"base_weights":[1.6052296E-2,-2.557204E-2,2.5595418E-1,4.8909083E-2,-2.2786827E-1,2.6707232E-1,-3.763258E-2,-3.6477712E-1,-1.0094588E-2,-2.0222709E-1,5.808716E-2,2.058625E-2,-3.2524523E-1,-2.228025E-1,2.2150242E-1,3.0561545E-1,2.9312953E-2],"categories":[],"categories_nodes":[],"categories_segments":[],"categories_sizes":[],"default_left":[0,0,0,1,1,0,0,0,0,1,1,0,0,0,1,0,0],"id":40,"left_children":[1,3,-1,5,7,-1,9,-1,-1,11,13,-1,-1,-1,15,-1,-1],"loss_changes":[1.2575555E-1,1.7812209E-1,0E0,1.7852265E-1,9.050152E-2,0E0,1.2621199E-1,0E0,0E0,8.603882E-2,2.958743E-1,0E0,0E0,0E0,5.4035902E-2,0E0,0E0],"parents":[2147483647,0,0,1,1,3,3,4,4,6,6,9,9,10,10,14,14],"right_children":[2,4,-1,6,8,-1,10,-1,-1,12,14,-1,-1,-1,16,-1,-1],"split_conditions":[8.35E0,7.95E0,7.678626E-2,5.95E-1,7.5E-1,8.0121696E-2,7.1499996E0,-1.0943314E-1,-3.0283765E-3,8.7E-1,6.05E-1,6.175875E-3,-9.757357E-2,-6.684075E-2,1.05E0,9.168464E-2,8.793887E-3],"split_indices":[0,0,0,2,2,0,0,0,0,2,2,0,0,0,2,0,0],"split_type":[0,0,0,0,0,0,0,0,0,0,0,0,0,0,0,0,0],"sum_hessian":[1.0938032E1,1.0082131E1,8.559006E-1,7.9232073E0,2.158924E0,1.6578561E0,6.2653513E0,9.111061E-1,1.247818E0,1.8946732E0,4.370678E0,9.701577E-1,9.2451555E-1,1.4738711E0,2.8968067E0,1.6044362E0,1.2923706E0],"tree_param":{"num_deleted":"0","num_feature":"3","num_nodes":"17","size_leaf_vector":"0"}},{"base_weights":[1.1201314E-2,-1.2969907E-1,7.442303E-2,2.0261483E-1,-4.0544325E-1,-1.9714577E-1,2.0545375E-1,-4.9183734E-2,-2.498491E-1,3.8558668E-1,-3.244653E-2,1.6975869E-1,-3.122507E-1,-1.1655813E-2,2.5994754E-1],"categories":[],"categories_nodes":[],"categories_segments":[],"categories_sizes":[],"default_left":[1,1,0,0,0,1,1,0,0,0,1,1,0,0,0],"id":41,"left_children":[1,3,5,-1,-1,7,9,-1,-1,-1,11,13,-1,-1,-1],"loss_changes":[1.1423895E-1,4.487759E-1,3.5149866E-1,0E0,0E0,1.3872325E-2,2.8613096E-1,0E0,0E0,0E0,2.608579E-1,4.8521295E-2,0E0,0E0,0E0],"parents":[2147483647,0,0,1,1,2,2,5,5,6,6,10,10,11,11],"right_children":[2,4,6,-1,-1,8,10,-1,-1,-1,12,14,-1,-1,-1],"split_conditions":[2.85E1,7.3500004E0,7.3500004E0,6.078445E-2,-1.2163298E-1,5.4E1,7.95E0,-1.47551205E-2,-7.495473E-2,1.1567601E-1,5.9E1,3.85E1,-9.367521E-2,-3.496744E-3,7.7984266E-2],"split_indices":[1,0,0,0,0,1,0,0,0,0,1,1,0,0,0],"split_type":[0,0,0,0,0,0,0,0,0,0,0,0,0,0,0],"sum_hessian":[1.0740768E1,3.0010102E0,7.739758E0,1.481175E0,1.5198351E0,2.3547745E0,5.3849835E0,1.1262108E0,1.2285635E0,2.7112744E0,2.6737092E0,1.7803813E0,8.9332795E-1,8.803411E-1,9.000402E-1],"tree_param":{"num_deleted":"0","num_feature":"3","num_nodes":"15","size_leaf_vector":"0"}},{"base_weights":[4.943985E-3,1.712906E-1,-4.8616618E-2,2.6620481E-2,2.3233059E-1,-9.395627E-2,1.2373404E-1,-1.6913971E-2,-3.5262957E-1,-1.8159537E-1,7.2452985E-2,-3.447934E-3,-2.6641923E-1,-1.8665314E-1,2.2225215E-1,3.317058E-1,-1.3154518E-2],"categories":[],"categories_nodes":[],"categories_segments":[],"categories_sizes":[],"default_left":[1,0,0,0,0,0,0,0,0,1,1,0,0,0,1,0,0],"id":42,"left_children":[1,3,5,-1,-1,7,-1,9,-1,11,13,-1,-1,-1,15,-1,-1],"loss_changes":[1.1077279E-1,2.0497926E-2,8.567929E-2,0E0,0E0,1.5488686E-1,0E0,1.20141804E-1,0E0,4.2032905E-2,2.5212914E-1,0E0,0E0,0E0,1.0473196E-1,0E0,0E0],"parents":[2147483647,0,0,1,1,2,2,5,5,7,7,9,9,10,10,14,14],"right_children":[2,4,6,-1,-1,8,-1,10,-1,12,14,-1,-1,-1,16,-1,-1],"split_conditions":[5.95E-1,7.3500004E0,8.25E0,7.986145E-3,6.969918E-2,8.05E0,3.7120216E-2,7.1499996E0,-1.0578888E-1,8.7E-1,6.05E-1,-1.0343803E-3,-7.9925776E-2,-5.5995945E-2,1.05E0,9.951175E-2,-3.9463555E-3],"split_indices":[2,0,0,0,0,0,0,0,0,2,2,0,0,0,2,0,0],"split_type":[0,0,0,0,0,0,0,0,0,0,0,0,0,0,0,0,0],"sum_hessian":[1.0498262E1,2.0215945E0,8.476667E0,1.0259999E0,9.955946E-1,7.071301E0,1.405367E0,6.2694254E0,8.018752E-1,1.84237E0,4.4270554E0,9.299447E-1,9.124254E-1,1.5316877E0,2.8953679E0,1.697179E0,1.1981888E0],"tree_param":{"num_deleted":"0","num_feature":"3","num_nodes":"17","size_leaf_vector":"0"}},{"base_weights":[1.3819104E-3,3.8268216E-2,-1.994037E-1,1.484778E-1,-5.2411673E-3,2.260812E-2,2.0295018E-1,-1.20671496E-1,9.063192E-2,-1.3139306E-2,-2.4413788E-1,2.0330039E-1,4.193818E-4,1.0066245E-1,-1.3620348E-1,1.00575E-1,-1.2393737E-1,1.743019E-1,-2.4608146E-2],"categories":[],"categories_nodes":[],"categories_segments":[],"categories_sizes":[],"default_left":[1,1,0,0,1,0,0,1,1,1,0,0,0,0,0,1,0,0,0],"id":43,"left_children":[1,3,-1,5,7,-1,-1,9,11,13,-1,-1,15,-1,-1,17,-1,-1,-1],"loss_changes":[9.1337785E-2,5.0586015E-2,0E0,1.5803486E-2,1.0404055E-1,0E0,0E0,5.3165827E-2,5.2431844E-2,6.0296126E-2,0E0,0E0,6.0684346E-2,0E0,0E0,2.9175576E-2,0E0,0E0,0E0],"parents":[2147483647,0,0,1,1,3,3,4,4,7,7,8,8,9,9,12,12,15,15],"right_children":[2,4,-1,6,8,-1,-1,10,12,14,-1,-1,16,-1,-1,18,-1,-1,-1],"split_conditions":[1.45E0,5.95E-1,-5.9821114E-2,7.3500004E0,7.05E-1,6.7824363E-3,6.0885057E-2,6.6499996E-1,8.7E-1,7.55E0,-7.324137E-2,6.0990117E-2,8.05E0,3.0198736E-2,-4.0861048E-2,9.5E-1,-3.7181213E-2,5.2290574E-2,-7.382444E-3],"split_indices":[2,2,0,0,2,0,0,2,2,0,0,0,0,0,0,2,0,0,0],"split_type":[0,0,0,0,0,0,0,0,0,0,0,0,0,0,0,0,0,0,0],"sum_hessian":[1.0302221E1,9.387121E0,9.150997E-1,1.9741187E0,7.413003E0,1.0236961E0,9.504226E-1,3.246086E0,4.166917E0,2.3263702E0,9.1971576E-1,1.2954406E0,2.8714764E0,1.303246E0,1.0231241E0,1.6964287E0,1.1750478E0,8.2070017E-1,8.7572855E-1],"tree_param":{"num_deleted":"0","num_feature":"3","num_nodes":"19","size_leaf_vector":"0"}},{"base_weights":[8.539881E-4,-1.3762227E-1,6.449239E-2,1.6393338E-1,-3.6999556E-1,-1.5946208E-1,1.7622812E-1,-3.1357635E-2,-2.0983176E-1,3.2702082E-1,-2.156366E-2,6.270017E-2,3.877396E-1,1.6043706E-1,-2.799959E-1,-3.5826645E-3,2.4183196E-1],"categories":[],"categories_nodes":[],"categories_segments":[],"categories_sizes":[],"default_left":[1,1,0,0,0,1,1,0,0,0,1,0,0,1,0,0,0],"id":44,"left_children":[1,3,5,-1,-1,7,9,-1,-1,11,13,-1,-1,15,-1,-1,-1],"loss_changes":[1.07894525E-1,3.3092698E-1,2.3778354E-1,0E0,0E0,1.4804415E-2,1.879516E-1,0E0,0E0,3.1915158E-2,2.1245451E-1,0E0,0E0,3.7255928E-2,0E0,0E0,0E0],"parents":[2147483647,0,0,1,1,2,2,5,5,6,6,9,9,10,10,13,13],"right_children":[2,4,6,-1,-1,8,10,-1,-1,12,14,-1,-1,16,-1,-1,-1],"split_conditions":[2.85E1,7.3500004E0,7.3500004E0,4.9180016E-2,-1.10998675E-1,5.4E1,7.95E0,-9.407291E-3,-6.294953E-2,7.45E0,5.9E1,1.881005E-2,1.16321884E-1,3.85E1,-8.399877E-2,-1.0747995E-3,7.254959E-2],"split_indices":[1,0,0,0,0,1,0,0,0,0,1,0,0,1,0,0,0],"split_type":[0,0,0,0,0,0,0,0,0,0,0,0,0,0,0,0,0],"sum_hessian":[1.0236309E1,2.8569849E0,7.3793244E0,1.3715811E0,1.4854037E0,2.3140616E0,5.065263E0,1.1110061E0,1.2030555E0,2.5033767E0,2.561886E0,8.473461E-1,1.6560305E0,1.7257317E0,8.361544E-1,8.8942546E-1,8.363063E-1],"tree_param":{"num_deleted":"0","num_feature":"3","num_nodes":"17","size_leaf_vector":"0"}},{"base_weights":[8.589947E-4,-3.917831E-2,1.558444E-1,5.208328E-2,-1.43149E-1,-1.0571309E-1,2.3024802E-1,-3.9270395E-1,5.5259205E-2,1.387018E-1,-2.9199255E-1,-1.16321884E-1,4.9051124E-1,1.7855223E-1,-1.3258384E-1],"categories":[],"categories_nodes":[],"categories_segments":[],"categories_sizes":[],"default_left":[0,1,0,1,1,0,0,0,0,0,0,0,0,0,0],"id":45,"left_children":[1,3,-1,5,7,9,11,-1,13,-1,-1,-1,-1,-1,-1],"loss_changes":[7.472889E-2,9.842914E-2,0E0,1.8850082E-1,2.5682014E-1,2.1268895E-1,3.328176E-1,0E0,1.0524212E-1,0E0,0E0,0E0,0E0,0E0,0E0],"parents":[2147483647,0,0,1,1,3,3,4,4,5,5,6,6,8,8],"right_children":[2,4,-1,6,8,10,12,-1,14,-1,-1,-1,-1,-1,-1],"split_conditions":[8.25E0,5E1,4.6753325E-2,2.85E1,6.25E1,7.3500004E0,7.45E0,-1.1781119E-1,7.6E0,4.161054E-2,-8.7597765E-2,-3.4896567E-2,1.4715338E-1,5.356567E-2,-3.9775155E-2],"split_indices":[0,1,0,1,1,0,0,0,0,0,0,0,0,0,0],"split_type":[0,0,0,0,0,0,0,0,0,0,0,0,0,0,0],"sum_hessian":[1.0058981E1,8.587729E0,1.4712511E0,4.8391566E0,3.7485728E0,2.7819252E0,2.0572314E0,1.2265561E0,2.5220168E0,1.3136767E0,1.4682485E0,1.119522E0,9.3770933E-1,1.5524852E0,9.695316E-1],"tree_param":{"num_deleted":"0","num_feature":"3","num_nodes":"15","size_leaf_vector":"0"}},{"base_weights":[2.657152E-3,1.3768679E-1,-3.5626918E-2,-3.1575617E-1,4.789612E-2,-1.2635936E-1,1.407195E-1,-3.999044E-4,-1.9103974E-1,2.7751625E-1,-3.0740978E-2,6.028623E-2,3.2487506E-1,-2.0086887E-1,1.3629222E-1],"categories":[],"categories_nodes":[],"categories_segments":[],"categories_sizes":[],"default_left":[1,0,1,0,0,1,1,0,0,0,0,0,0,0,0],"id":46,"left_children":[1,-1,3,-1,5,7,9,-1,-1,11,13,-1,-1,-1,-1],"loss_changes":[6.121762E-2,0E0,2.3228255E-1,0E0,1.4747141E-1,2.6919246E-2,1.4232972E-1,0E0,0E0,1.4082938E-2,1.24897026E-1,0E0,0E0,0E0,0E0],"parents":[2147483647,0,0,2,2,4,4,5,5,6,6,9,9,10,10],"right_children":[2,-1,4,-1,6,8,10,-1,-1,12,14,-1,-1,-1,-1],"split_conditions":[2.4E1,4.1306037E-2,2.85E1,-9.472685E-2,7.3500004E0,5.4E1,7.95E0,-1.1997133E-4,-5.7311926E-2,7.45E0,8.25E0,1.808587E-2,9.746252E-2,-6.0260665E-2,4.088767E-2],"split_indices":[1,0,1,0,0,1,0,0,0,0,0,0,0,0,0],"split_type":[0,0,0,0,0,0,0,0,0,0,0,0,0,0,0],"sum_hessian":[9.893208E0,1.6118145E0,8.281393E0,1.2634431E0,7.01795E0,2.313526E0,4.704424E0,1.1263125E0,1.1872134E0,2.2726703E0,2.4317536E0,8.13625E-1,1.4590454E0,1.1043621E0,1.3273916E0],"tree_param":{"num_deleted":"0","num_feature":"3","num_nodes":"15","size_leaf_vector":"0"}},{"base_weights":[1.4715357E-3,4.6037793E-2,-2.4275787E-1,1.658983E-1,-3.020898E-3,5.198348E-2,2.0131737E-1,-1.3723268E-1,1.06087275E-1,-2.018088E-1,4.9340814E-2,2.2315565E-1,4.986361E-3,1.1328642E-1,-1.3247818E-1,1.69025E-1,-5.635984E-3],"categories":[],"categories_nodes":[],"categories_segments":[],"categories_sizes":[],"default_left":[1,1,0,0,1,0,0,0,1,0,0,0,0,1,0,0,0],"id":47,"left_children":[1,3,-1,5,7,-1,-1,9,11,-1,-1,-1,13,15,-1,-1,-1],"loss_changes":[1.288283E-1,5.9196092E-2,0E0,1.3036653E-3,1.3265821E-1,0E0,0E0,5.878184E-2,5.821378E-2,0E0,0E0,0E0,7.027801E-2,1.8290248E-2,0E0,0E0,0E0],"parents":[2147483647,0,0,1,1,3,3,4,4,7,7,8,8,12,12,13,13],"right_children":[2,4,-1,6,8,-1,-1,10,12,-1,-1,-1,14,16,-1,-1,-1],"split_conditions":[1.45E0,5.95E-1,-7.282736E-2,7.3500004E0,7.05E-1,1.5595044E-2,6.0395215E-2,7.6499996E0,8.7E-1,-6.054264E-2,1.48022445E-2,6.69467E-2,8.05E0,9.5E-1,-3.9743453E-2,5.0707504E-2,-1.6907952E-3],"split_indices":[2,2,0,0,2,0,0,0,2,0,0,0,0,2,0,0,0],"split_type":[0,0,0,0,0,0,0,0,0,0,0,0,0,0,0,0,0],"sum_hessian":[9.809265E0,8.981792E0,8.2747304E-1,1.9168655E0,7.0649266E0,1.0399256E0,8.7693983E-1,3.0524285E0,4.012498E0,2.2069194E0,8.455092E-1,1.2999653E0,2.7125328E0,1.6155915E0,1.0969414E0,8.131605E-1,8.02431E-1],"tree_param":{"num_deleted":"0","num_feature":"3","num_nodes":"17","size_leaf_vector":"0"}},{"base_weights":[4.727925E-3,4.374634E-2,-2.0932713E-1,-3.1114513E-2,2.1202277E-1,1.9364075E-1,-8.8438146E-2,4.035563E-1,-2.2367653E-2,7.0012756E-2,-1.3694632E-1,4.8305616E-2,-2.1953364E-1,-3.36971E-1,4.333039E-2,-4.389834E-1,-6.412707E-2],"categories":[],"categories_nodes":[],"categories_segments":[],"categories_sizes":[],"default_left":[1,1,0,1,1,0,1,0,0,0,1,0,1,1,0,0,0],"id":48,"left_children":[1,3,-1,5,7,-1,9,-1,-1,-1,11,-1,13,15,-1,-1,-1],"loss_changes":[9.897591E-2,1.3160183E-1,0E0,1.1684414E-1,1.519346E-1,0E0,6.2264856E-2,0E0,0E0,0E0,9.605842E-2,0E0,1.3942477E-1,5.2811652E-2,0E0,0E0,0E0],"parents":[2147483647,0,0,1,1,3,3,4,4,6,6,10,10,12,12,13,13],"right_children":[2,4,-1,6,8,-1,10,-1,-1,-1,12,-1,14,16,-1,-1,-1],"split_conditions":[1.45E0,6.25E1,-6.279814E-2,5.95E-1,7.3E1,5.809223E-2,2.3E1,1.2106689E-1,-6.710296E-3,2.1003827E-2,6.6499996E-1,1.4491686E-2,3.6E1,8.5E-1,1.2999117E-2,-1.3169503E-1,-1.9238122E-2],"split_indices":[2,1,0,2,1,0,1,0,0,0,2,0,1,2,0,0,0],"split_type":[0,0,0,0,0,0,0,0,0,0,0,0,0,0,0,0,0],"sum_hessian":[9.75403E0,8.923133E0,8.3089745E-1,6.7398744E0,2.1832583E0,8.8640803E-1,5.8534665E0,8.0429596E-1,1.3789622E0,1.2680593E0,4.5854073E0,1.5418882E0,3.043519E0,1.9088141E0,1.1347051E0,9.461462E-1,9.626679E-1],"tree_param":{"num_deleted":"0","num_feature":"3","num_nodes":"17","size_leaf_vector":"0"}},{"base_weights":[5.0894683E-3,4.775536E-2,-1.4578572E-1,-1.0375174E-1,8.526745E-2,1.3330757E-2,1.943333E-1,1.612828E-1,-1.7743468E-1,-1.39364265E-2,3.3175665E-1,-3.1624195E-1,3.6381744E-2,4.653567E-2,-7.309179E-2],"categories":[],"categories_nodes":[],"categories_segments":[],"categories_sizes":[],"default_left":[1,1,0,0,0,0,0,0,1,1,0,0,0,0,0],"id":49,"left_children":[1,3,-1,-1,5,7,-1,9,11,13,-1,-1,-1,-1,-1],"loss_changes":[7.5983584E-2,6.063215E-2,0E0,0E0,5.9018023E-2,1.9246483E-1,0E0,1.1793186E-1,1.0089605E-1,1.35261435E-2,0E0,0E0,0E0,0E0,0E0],"parents":[2147483647,0,0,1,1,4,4,5,5,7,7,8,8,9,9],"right_children":[2,4,-1,-1,6,8,-1,10,12,14,-1,-1,-1,-1,-1],"split_conditions":[1.1500001E0,4.05E-1,-4.3735716E-2,-3.1125523E-2,7.6499996E0,7.3500004E0,5.8299992E-2,7.1499996E0,6.05E-1,8.2E-1,9.9527E-2,-9.487259E-2,1.0914523E-2,1.3960701E-2,-2.1927537E-2],"split_indices":[2,2,0,0,0,0,0,0,2,2,0,0,0,0,0],"split_type":[0,0,0,0,0,0,0,0,0,0,0,0,0,0,0],"sum_hessian":[9.72225E0,8.111797E0,1.610452E0,1.2594001E0,6.852398E0,4.805232E0,2.0471654E0,2.7933455E0,2.0118868E0,1.8303224E0,9.630229E-1,9.2945814E-1,1.0824287E0,1.0105797E0,8.197427E-1],"tree_param":{"num_deleted":"0","num_feature":"3","num_nodes":"15","size_leaf_vector":"0"}},{"base_weights":[3.3295988E-3,3.36984E-2,-1.600445E-1,7.865942E-2,-7.365592E-2,1.9898838E-1,1.7458873E-2,-2.4267188E-1,7.533552E-2,-7.164346E-2,1.0169302E-1,-1.1552951E-1,2.948017E-2,2.3032429E-2,1.1792023E-1,-6.304328E-2,2.3400213E-1],"categories":[],"categories_nodes":[],"categories_segments":[],"categories_sizes":[],"default_left":[1,1,0,1,0,0,1,0,0,0,1,0,0,0,0,0,0],"id":50,"left_children":[1,3,-1,5,7,-1,9,-1,-1,11,13,-1,-1,-1,15,-1,-1],"loss_changes":[5.8099642E-2,5.3018954E-2,0E0,5.0870184E-2,1.0401409E-1,0E0,5.2226692E-2,0E0,0E0,1.8922947E-2,1.7404445E-3,0E0,0E0,0E0,7.045121E-2,0E0,0E0],"parents":[2147483647,0,0,1,1,3,3,4,4,6,6,9,9,10,10,14,14],"right_children":[2,4,-1,6,8,-1,10,-1,-1,12,14,-1,-1,-1,16,-1,-1],"split_conditions":[1.45E0,7.95E0,-4.8013356E-2,5.95E-1,8.15E0,5.9696514E-2,7.05E-1,-7.280157E-2,2.2600656E-2,7.45E0,8.2E-1,-3.4658853E-2,8.8440515E-3,6.909729E-3,7.1499996E0,-1.8912986E-2,7.0200644E-2],"split_indices":[2,0,0,2,0,0,2,0,0,0,2,0,0,0,0,0,0],"split_type":[0,0,0,0,0,0,0,0,0,0,0,0,0,0,0,0,0],"sum_hessian":[9.62313E0,8.784042E0,8.390873E-1,6.3795266E0,2.404516E0,1.3917446E0,4.987782E0,8.319676E-1,1.5725484E0,2.496487E0,2.4912949E0,1.6416004E0,8.548866E-1,8.397959E-1,1.651499E0,8.239406E-1,8.275584E-1],"tree_param":{"num_deleted":"0","num_feature":"3","num_nodes":"17","size_leaf_vector":"0"}},{"base_weights":[2.027759E-3,3.8728252E-2,-1.12868376E-1,2.2422008E-1,-2.312096E-2,-3.2319456E-2,-1.3770291E-1,-2.0491755E-1,5.2780077E-2,-1.868599E-1,1.4302598E-1,2.3805818E-1,-6.3502744E-2],"categories":[],"categories_nodes":[],"categories_segments":[],"categories_sizes":[],"default_left":[1,1,1,0,1,0,0,0,1,0,1,0,0],"id":51,"left_children":[1,3,5,-1,7,-1,-1,-1,9,-1,11,-1,-1],"loss_changes":[4.8932754E-2,1.0561365E-1,1.1783317E-3,0E0,1.13910906E-1,0E0,0E0,0E0,1.5791318E-1,0E0,1.1272198E-1,0E0,0E0],"parents":[2147483647,0,0,1,1,2,2,4,4,8,8,10,10],"right_children":[2,4,6,-1,8,-1,-1,-1,10,-1,12,-1,-1],"split_conditions":[1.05E0,2.4E1,1.45E0,6.7266025E-2,2.85E1,-9.695837E-3,-4.1310877E-2,-6.1475266E-2,4.05E-1,-5.6057975E-2,8.7E-1,7.141746E-2,-1.9050824E-2],"split_indices":[2,1,2,0,1,0,0,0,2,0,2,0,0],"split_type":[0,0,0,0,0,0,0,0,0,0,0,0,0],"sum_hessian":[9.567763E0,7.753912E0,1.8138512E0,1.2824497E0,6.4714622E0,9.69793E-1,8.440582E-1,1.405423E0,5.066039E0,1.0930305E0,3.9730089E0,2.6164234E0,1.3565855E0],"tree_param":{"num_deleted":"0","num_feature":"3","num_nodes":"13","size_leaf_vector":"0"}},{"base_weights":[-2.5291033E-3,1.11604474E-1,-3.763482E-2,-1.19570084E-1,2.8636627E-2,5.5810935E-3,-2.3742494E-1,1.8886696E-1,-5.6446817E-2,-6.450048E-2,8.5232265E-2,-1.755234E-1,1.9542867E-2,1.1786587E-1,-9.6545056E-2],"categories":[],"categories_nodes":[],"categories_segments":[],"categories_sizes":[],"default_left":[1,0,1,1,1,0,0,0,0,0,0,0,0,0,0],"id":52,"left_children":[1,-1,3,5,7,9,-1,-1,11,-1,-1,-1,13,-1,-1],"loss_changes":[4.6244096E-2,0E0,5.10599E-2,6.203489E-2,8.777915E-2,2.2094416E-2,0E0,0E0,4.38294E-2,0E0,0E0,0E0,5.275836E-2,0E0,0E0],"parents":[2147483647,0,0,2,2,3,3,4,4,5,5,8,8,12,12],"right_children":[2,-1,4,6,8,10,-1,-1,12,-1,-1,-1,14,-1,-1],"split_conditions":[5.95E-1,3.3481345E-2,7.05E-1,7.55E0,8.7E-1,7.3500004E0,-7.122748E-2,5.666009E-2,7.1499996E0,-1.9350145E-2,2.5569681E-2,-5.2657023E-2,8.05E0,3.5359763E-2,-2.8963517E-2],"split_indices":[2,0,2,0,2,0,0,0,0,0,0,0,0,0,0],"split_type":[0,0,0,0,0,0,0,0,0,0,0,0,0,0,0],"sum_hessian":[9.493286E0,1.7205247E0,7.772762E0,3.1160097E0,4.656752E0,1.9732459E0,1.1427639E0,1.1920612E0,3.464691E0,1.150864E0,8.2238185E-1,8.3944327E-1,2.6252477E0,1.4130886E0,1.2121593E0],"tree_param":{"num_deleted":"0","num_feature":"3","num_nodes":"15","size_leaf_vector":"0"}},{"base_weights":[-3.4765787E-3,-3.562872E-2,1.2100672E-1,1.6105864E-2,-2.0995434E-1,7.18355E-2,-1.3790007E-1,1.7089445E-2,1.9871135E-1,1.5774721E-1,-6.2318202E-2,6.564982E-2,-1.4872608E-1,-2.2083244E-1,1.3310066E-2],"categories":[],"categories_nodes":[],"categories_segments":[],"categories_sizes":[],"default_left":[0,0,0,1,0,1,0,1,0,0,0,0,1,0,0],"id":53,"left_children":[1,3,-1,5,-1,7,-1,9,-1,-1,11,-1,13,-1,-1],"loss_changes":[4.608395E-2,8.515435E-2,0E0,7.788791E-2,0E0,4.156963E-2,0E0,7.256161E-2,0E0,0E0,5.7383902E-2,0E0,3.65536E-2,0E0,0E0],"parents":[2147483647,0,0,1,1,3,3,5,5,7,7,10,10,12,12],"right_children":[2,4,-1,6,-1,8,-1,10,-1,-1,12,-1,14,-1,-1],"split_conditions":[8.25E0,7.95E0,3.630202E-2,9.5E-1,-6.298631E-2,8.2E-1,-4.1370023E-2,5.95E-1,5.9613407E-2,4.7324166E-2,7.3500004E0,1.9694947E-2,6.05E-1,-6.6249736E-2,3.99302E-3],"split_indices":[0,0,0,2,0,2,0,2,0,0,0,0,2,0,0],"split_type":[0,0,0,0,0,0,0,0,0,0,0,0,0,0,0],"sum_hessian":[9.436885E0,8.06707E0,1.3698144E0,6.920797E0,1.1462733E0,5.4736266E0,1.4471704E0,4.616383E0,8.5724354E-1,1.3097768E0,3.3066063E0,1.4296143E0,1.876992E0,1.0478415E0,8.2915044E-1],"tree_param":{"num_deleted":"0","num_feature":"3","num_nodes":"15","size_leaf_vector":"0"}},{"base_weights":[-2.5228648E-3,4.166594E-2,-8.570941E-2,-3.9037015E-2,2.335722E-1,-2.3412636E-1,5.0954364E-2,6.573033E-2,-1.9047035E-1,2.1274252E-1,-1.6075632E-1,3.0457094E-1,-2.1301375E-1,-2.8161016E-1,-2.650647E-3,4.6456894E-1,-2.100063E-2],"categories":[],"categories_nodes":[],"categories_segments":[],"categories_sizes":[],"default_left":[1,1,0,1,0,0,1,1,1,0,0,1,0,0,0,0,0],"id":54,"left_children":[1,3,5,7,-1,-1,9,11,13,-1,-1,15,-1,-1,-1,-1,-1],"loss_changes":[4.169223E-2,1.2443213E-1,9.153785E-2,1.09270334E-1,0E0,0E0,1.3231815E-1,3.543453E-1,4.633286E-2,0E0,0E0,1.5316948E-1,0E0,0E0,0E0,0E0,0E0],"parents":[2147483647,0,0,1,1,2,2,3,3,6,6,7,7,8,8,11,11],"right_children":[2,4,6,8,-1,-1,10,12,14,-1,-1,16,-1,-1,-1,-1,-1],"split_conditions":[5.55E1,4.05E1,7.3500004E0,3.05E1,7.007166E-2,-7.023791E-2,7.95E0,7.3500004E0,3.65E1,6.382276E-2,-4.8226897E-2,2.75E1,-6.390413E-2,-8.448305E-2,-7.951941E-4,1.393707E-1,-6.300189E-3],"split_indices":[1,1,0,1,0,0,0,0,1,0,0,1,0,0,0,0,0],"split_type":[0,0,0,0,0,0,0,0,0,0,0,0,0,0,0,0,0],"sum_hessian":[9.3705015E0,6.445676E0,2.9248252E0,5.098268E0,1.347408E0,1.0602438E0,1.8645813E0,3.347964E0,1.7503037E0,1.0541397E0,8.104416E-1,1.7531399E0,1.5948243E0,8.422407E-1,9.0806305E-1,8.892137E-1,8.639261E-1],"tree_param":{"num_deleted":"0","num_feature":"3","num_nodes":"17","size_leaf_vector":"0"}},{"base_weights":[-7.661077E-4,2.4214875E-2,-1.2862936E-1,-3.411105E-2,1.6251686E-1,8.0233075E-2,-1.4129272E-1,-3.2046624E-2,2.5940448E-1,-3.6575712E-2,1.8045026E-1,2.183752E-2,-2.9389518E-1,2.2534691E-1,-2.3156929E-1],"categories":[],"categories_nodes":[],"categories_segments":[],"categories_sizes":[],"default_left":[1,1,0,1,1,1,1,0,0,0,0,1,0,0,0],"id":55,"left_children":[1,3,-1,5,7,9,11,-1,-1,-1,-1,13,-1,-1,-1],"loss_changes":[3.5761397E-2,8.1303805E-2,0E0,1.0242549E-1,6.4099945E-2,5.616305E-2,1.1093735E-1,0E0,0E0,0E0,0E0,2.0483877E-1,0E0,0E0,0E0],"parents":[2147483647,0,0,1,1,3,3,4,4,5,5,6,6,11,11],"right_children":[2,4,-1,6,8,10,12,-1,-1,-1,-1,14,-1,-1,-1],"split_conditions":[1.45E0,6.25E1,-3.8588807E-2,3.05E1,5.5E-1,2.55E1,8.5E-1,-9.613987E-3,7.7821344E-2,-1.0972714E-2,5.413508E-2,5.15E1,-8.816856E-2,6.760407E-2,-6.947079E-2],"split_indices":[2,1,0,1,2,1,2,0,0,0,0,1,0,0,0],"split_type":[0,0,0,0,0,0,0,0,0,0,0,0,0,0,0],"sum_hessian":[9.220765E0,8.391847E0,8.289183E-1,6.432454E0,1.9593927E0,3.2338889E0,3.1985652E0,8.738409E-1,1.0855517E0,1.7865728E0,1.447316E0,1.9601197E0,1.2384456E0,1.1484985E0,8.116212E-1],"tree_param":{"num_deleted":"0","num_feature":"3","num_nodes":"15","size_leaf_vector":"0"}},{"base_weights":[-1.7767572E-3,-3.865766E-2,1.3801426E-1,5.2968808E-2,-1.4875017E-1,-7.511161E-2,1.9915622E-1,-2.9410288E-1,-8.51448E-3,1.3091514E-1,-2.376412E-1,-4.284497E-2,3.2833198E-1,9.164801E-2,-1.2586726E-1],"categories":[],"categories_nodes":[],"categories_segments":[],"categories_sizes":[],"default_left":[0,1,0,1,1,0,0,0,0,0,0,0,0,0,0],"id":56,"left_children":[1,3,-1,5,7,9,11,-1,13,-1,-1,-1,-1,-1,-1],"loss_changes":[5.737163E-2,9.6318685E-2,0E0,1.1835858E-1,8.402362E-2,1.5398966E-1,1.0324659E-1,0E0,4.9035653E-2,0E0,0E0,0E0,0E0,0E0,0E0],"parents":[2147483647,0,0,1,1,3,3,4,4,5,5,6,6,8,8],"right_children":[2,4,-1,6,8,10,12,-1,14,-1,-1,-1,-1,-1,-1],"split_conditions":[8.25E0,5E1,4.1404277E-2,2.85E1,6.25E1,7.3500004E0,7.3500004E0,-8.823086E-2,7.6E0,3.9274544E-2,-7.129236E-2,-1.2853491E-2,9.8499596E-2,2.7494404E-2,-3.776018E-2],"split_indices":[0,1,0,1,1,0,0,0,0,0,0,0,0,0,0],"split_type":[0,0,0,0,0,0,0,0,0,0,0,0,0,0,0],"sum_hessian":[9.093128E0,7.7673407E0,1.3257874E0,4.5223794E0,3.2449613E0,2.6696193E0,1.8527598E0,1.0546373E0,2.190324E0,1.263054E0,1.4065653E0,8.773778E-1,9.75382E-1,1.2998875E0,8.9043653E-1],"tree_param":{"num_deleted":"0","num_feature":"3","num_nodes":"15","size_leaf_vector":"0"}},{"base_weights":[-1.0396879E-3,1.0878644E-1,-3.5955183E-2,-1.3137344E-1,4.0356666E-2,-5.3424504E-2,-1.7285897E-1,1.2911649E-1,-9.602749E-2,-1.475924E-1,8.035719E-2,1.7909934E-1,3.6451157E-2,-2.8012827E-2,-1.13726884E-1],"categories":[],"categories_nodes":[],"categories_segments":[],"categories_sizes":[],"default_left":[1,0,1,1,1,0,0,1,1,0,0,0,0,0,0],"id":57,"left_children":[1,-1,3,5,7,9,-1,11,13,-1,-1,-1,-1,-1,-1],"loss_changes":[4.2242724E-2,0E0,6.600328E-2,3.504239E-3,7.7730775E-2,4.7331784E-2,0E0,1.0589257E-2,6.587431E-5,0E0,0E0,0E0,0E0,0E0,0E0],"parents":[2147483647,0,0,2,2,3,3,4,4,5,5,7,7,8,8],"right_children":[2,-1,4,6,8,10,-1,12,14,-1,-1,-1,-1,-1,-1],"split_conditions":[5.95E-1,3.2635935E-2,7.05E-1,7.55E0,1.05E0,7.3500004E0,-5.185769E-2,8.7E-1,1.45E0,-4.427772E-2,2.4107156E-2,5.3729802E-2,1.09353475E-2,-8.403849E-3,-3.4118067E-2],"split_indices":[2,0,2,0,2,0,0,2,2,0,0,0,0,0,0],"split_type":[0,0,0,0,0,0,0,0,0,0,0,0,0,0,0],"sum_hessian":[8.996076E0,1.6597264E0,7.3363495E0,2.9394312E0,4.3969183E0,1.8156729E0,1.1237584E0,2.6957755E0,1.7011427E0,1.0050164E0,8.106564E-1,1.145272E0,1.5505035E0,8.8458544E-1,8.165573E-1],"tree_param":{"num_deleted":"0","num_feature":"3","num_nodes":"15","size_leaf_vector":"0"}},{"base_weights":[-2.17666E-3,-3.4088768E-2,1.1851769E-1,6.426261E-3,-1.6675484E-1,-5.081715E-2,1.8666148E-1,-9.826265E-2,2.6251338E-2,5.182054E-2,-1.652401E-1,5.588018E-2,-2.3264227E-2],"categories":[],"categories_nodes":[],"categories_segments":[],"categories_sizes":[],"default_left":[0,0,0,0,0,1,0,1,0,0,0,0,0],"id":58,"left_children":[1,3,-1,5,-1,7,-1,9,11,-1,-1,-1,-1],"loss_changes":[4.244086E-2,4.76285E-2,0E0,8.787934E-2,0E0,2.6540063E-2,0E0,5.1452447E-2,6.1209695E-3,0E0,0E0,0E0,0E0],"parents":[2147483647,0,0,1,1,3,3,5,5,7,7,8,8],"right_children":[2,4,-1,6,-1,8,-1,10,12,-1,-1,-1,-1],"split_conditions":[8.25E0,7.95E0,3.5555307E-2,7.6499996E0,-5.0026454E-2,7.05E-1,5.599845E-2,5.95E-1,7.3500004E0,1.5546163E-2,-4.9572032E-2,1.6764056E-2,-6.9792685E-3],"split_indices":[0,0,0,0,0,2,0,2,0,0,0,0,0],"split_type":[0,0,0,0,0,0,0,0,0,0,0,0,0],"sum_hessian":[8.970047E0,7.661796E0,1.3082507E0,6.598296E0,1.0634998E0,5.552767E0,1.0455295E0,3.2666945E0,2.2860723E0,1.0778174E0,2.188877E0,1.3498305E0,9.362417E-1],"tree_param":{"num_deleted":"0","num_feature":"3","num_nodes":"13","size_leaf_vector":"0"}},{"base_weights":[4.8366102E-4,1.3119079E-1,-3.719209E-2,-2.2444792E-1,2.858708E-2,-1.858129E-1,9.478985E-2,2.1186706E-1,-3.5112634E-2,-1.362182E-1,6.280791E-2],"categories":[],"categories_nodes":[],"categories_segments":[],"categories_sizes":[],"default_left":[1,0,1,0,1,0,1,0,1,0,0],"id":59,"left_children":[1,-1,3,-1,5,-1,7,-1,9,-1,-1],"loss_changes":[5.3931434E-2,0E0,1.1125377E-1,0E0,1.1960571E-1,0E0,1.0101095E-1,0E0,4.592291E-2,0E0,0E0],"parents":[2147483647,0,0,2,2,4,4,6,6,8,8],"right_children":[2,-1,4,-1,6,-1,8,-1,10,-1,-1],"split_conditions":[2.4E1,3.9357238E-2,2.85E1,-6.733438E-2,4.05E-1,-5.5743873E-2,8.7E-1,6.356012E-2,3.95E1,-4.0865462E-2,1.8842373E-2],"split_indices":[1,0,1,0,2,0,2,0,1,0,0],"split_type":[0,0,0,0,0,0,0,0,0,0,0],"sum_hessian":[8.960864E0,1.4496261E0,7.5112376E0,1.3255645E0,6.185673E0,1.0331279E0,5.152545E0,2.3781867E0,2.7743585E0,1.1725549E0,1.6018037E0],"tree_param":{"num_deleted":"0","num_feature":"3","num_nodes":"11","size_leaf_vector":"0"}}]},"name":"gbtree"},"learner_model_param":{"base_score":"5E-1","num_class":"0","num_feature":"3","num_target":"1"},"objective":{"name":"binary:logistic","reg_loss_param":{"scale_pos_weight":"4"}}},"version":[1,6,1]}